FANN_FLO_2.1
num_layers=3
learning_rate=0.700000
connection_rate=1.000000
network_type=0
learning_momentum=0.000000
training_algorithm=2
train_error_function=1
train_stop_function=0
cascade_output_change_fraction=0.010000
quickprop_decay=-0.000100
quickprop_mu=1.750000
rprop_increase_factor=1.200000
rprop_decrease_factor=0.500000
rprop_delta_min=0.000000
rprop_delta_max=50.000000
rprop_delta_zero=0.100000
cascade_output_stagnation_epochs=12
cascade_candidate_change_fraction=0.010000
cascade_candidate_stagnation_epochs=12
cascade_max_out_epochs=150
cascade_max_cand_epochs=150
cascade_num_candidate_groups=2
bit_fail_limit=3.49999994039535522461e-01
cascade_candidate_limit=1.00000000000000000000e+03
cascade_weight_multiplier=4.00000005960464477539e-01
cascade_activation_functions_count=10
cascade_activation_functions=3 5 7 8 10 11 14 15 16 17 
cascade_activation_steepnesses_count=4
cascade_activation_steepnesses=2.50000000000000000000e-01 5.00000000000000000000e-01 7.50000000000000000000e-01 1.00000000000000000000e+00 
layer_sizes=109 11 2 
scale_included=1
scale_mean_in=100.931580 109.284477 114.865257 101.018745 109.339287 114.926628 101.082863 109.374237 114.970375 101.164154 109.421326 115.026917 101.254951 109.484032 115.099037 101.345848 109.539322 115.167999 100.943306 109.289627 114.884491 101.031898 109.344643 114.946342 101.098793 109.383545 114.995491 101.181816 109.432304 115.050659 101.278030 109.498680 115.126526 101.374664 109.561844 115.201103 100.936134 109.277794 114.884186 101.030731 109.337608 114.954391 101.118660 109.392319 115.016815 101.212914 109.454712 115.090256 101.318031 109.527290 115.171928 101.423119 109.600273 115.254662 100.929596 109.263542 114.884544 101.037308 109.334511 114.966408 101.143188 109.408592 115.046104 101.251343 109.486290 115.134224 101.363831 109.564476 115.224342 101.471443 109.639999 115.309677 100.924370 109.251968 114.885796 101.044693 109.340088 114.979439 101.164322 109.424561 115.075256 101.278305 109.506340 115.167679 101.394951 109.589340 115.264473 101.499054 109.660881 115.342896 100.926224 109.249290 114.897560 101.055748 109.344879 114.998917 101.177544 109.435898 115.098473 101.295219 109.519302 115.192947 101.407234 109.600357 115.284729 101.506523 109.663506 115.361084 
scale_deviation_in=49.256535 46.284172 52.753738 49.215504 46.254452 52.729183 49.178284 46.225750 52.710274 49.108852 46.173981 52.661587 49.032913 46.107033 52.606934 48.971523 46.038952 52.553814 49.234413 46.256321 52.724796 49.190327 46.227989 52.697674 49.157764 46.201710 52.680271 49.096920 46.157764 52.646515 49.039658 46.105801 52.607033 48.977173 46.036007 52.558277 49.227306 46.234226 52.697968 49.186920 46.208805 52.673725 49.150635 46.189461 52.660984 49.104469 46.161221 52.648273 49.048931 46.120163 52.621380 48.989902 46.050404 52.575222 49.247849 46.243771 52.710640 49.205563 46.215389 52.682030 49.172894 46.202744 52.674461 49.122673 46.176174 52.662922 49.066814 46.135117 52.640476 49.007923 46.075352 52.596584 49.277401 46.256687 52.732597 49.234875 46.232109 52.703529 49.196327 46.220436 52.692184 49.141758 46.190571 52.677803 49.090122 46.157150 52.660183 49.041973 46.108929 52.629044 49.275055 46.239880 52.722687 49.237606 46.222424 52.698437 49.207466 46.218288 52.688847 49.148724 46.190105 52.671520 49.102085 46.162102 52.661148 49.063290 46.130951 52.644093 
scale_new_min_in=0.000000 0.000000 0.000000 0.000000 0.000000 0.000000 0.000000 0.000000 0.000000 0.000000 0.000000 0.000000 0.000000 0.000000 0.000000 0.000000 0.000000 0.000000 0.000000 0.000000 0.000000 0.000000 0.000000 0.000000 0.000000 0.000000 0.000000 0.000000 0.000000 0.000000 0.000000 0.000000 0.000000 0.000000 0.000000 0.000000 0.000000 0.000000 0.000000 0.000000 0.000000 0.000000 0.000000 0.000000 0.000000 0.000000 0.000000 0.000000 0.000000 0.000000 0.000000 0.000000 0.000000 0.000000 0.000000 0.000000 0.000000 0.000000 0.000000 0.000000 0.000000 0.000000 0.000000 0.000000 0.000000 0.000000 0.000000 0.000000 0.000000 0.000000 0.000000 0.000000 0.000000 0.000000 0.000000 0.000000 0.000000 0.000000 0.000000 0.000000 0.000000 0.000000 0.000000 0.000000 0.000000 0.000000 0.000000 0.000000 0.000000 0.000000 0.000000 0.000000 0.000000 0.000000 0.000000 0.000000 0.000000 0.000000 0.000000 0.000000 0.000000 0.000000 0.000000 0.000000 0.000000 0.000000 0.000000 0.000000 
scale_factor_in=0.500000 0.500000 0.500000 0.500000 0.500000 0.500000 0.500000 0.500000 0.500000 0.500000 0.500000 0.500000 0.500000 0.500000 0.500000 0.500000 0.500000 0.500000 0.500000 0.500000 0.500000 0.500000 0.500000 0.500000 0.500000 0.500000 0.500000 0.500000 0.500000 0.500000 0.500000 0.500000 0.500000 0.500000 0.500000 0.500000 0.500000 0.500000 0.500000 0.500000 0.500000 0.500000 0.500000 0.500000 0.500000 0.500000 0.500000 0.500000 0.500000 0.500000 0.500000 0.500000 0.500000 0.500000 0.500000 0.500000 0.500000 0.500000 0.500000 0.500000 0.500000 0.500000 0.500000 0.500000 0.500000 0.500000 0.500000 0.500000 0.500000 0.500000 0.500000 0.500000 0.500000 0.500000 0.500000 0.500000 0.500000 0.500000 0.500000 0.500000 0.500000 0.500000 0.500000 0.500000 0.500000 0.500000 0.500000 0.500000 0.500000 0.500000 0.500000 0.500000 0.500000 0.500000 0.500000 0.500000 0.500000 0.500000 0.500000 0.500000 0.500000 0.500000 0.500000 0.500000 0.500000 0.500000 0.500000 0.500000 
scale_mean_out=0.619677 
scale_deviation_out=0.474511 
scale_new_min_out=0.000000 
scale_factor_out=0.500000 
neurons (num_inputs, activation_function, activation_steepness)=(0, 0, 0.00000000000000000000e+00) (0, 0, 0.00000000000000000000e+00) (0, 0, 0.00000000000000000000e+00) (0, 0, 0.00000000000000000000e+00) (0, 0, 0.00000000000000000000e+00) (0, 0, 0.00000000000000000000e+00) (0, 0, 0.00000000000000000000e+00) (0, 0, 0.00000000000000000000e+00) (0, 0, 0.00000000000000000000e+00) (0, 0, 0.00000000000000000000e+00) (0, 0, 0.00000000000000000000e+00) (0, 0, 0.00000000000000000000e+00) (0, 0, 0.00000000000000000000e+00) (0, 0, 0.00000000000000000000e+00) (0, 0, 0.00000000000000000000e+00) (0, 0, 0.00000000000000000000e+00) (0, 0, 0.00000000000000000000e+00) (0, 0, 0.00000000000000000000e+00) (0, 0, 0.00000000000000000000e+00) (0, 0, 0.00000000000000000000e+00) (0, 0, 0.00000000000000000000e+00) (0, 0, 0.00000000000000000000e+00) (0, 0, 0.00000000000000000000e+00) (0, 0, 0.00000000000000000000e+00) (0, 0, 0.00000000000000000000e+00) (0, 0, 0.00000000000000000000e+00) (0, 0, 0.00000000000000000000e+00) (0, 0, 0.00000000000000000000e+00) (0, 0, 0.00000000000000000000e+00) (0, 0, 0.00000000000000000000e+00) (0, 0, 0.00000000000000000000e+00) (0, 0, 0.00000000000000000000e+00) (0, 0, 0.00000000000000000000e+00) (0, 0, 0.00000000000000000000e+00) (0, 0, 0.00000000000000000000e+00) (0, 0, 0.00000000000000000000e+00) (0, 0, 0.00000000000000000000e+00) (0, 0, 0.00000000000000000000e+00) (0, 0, 0.00000000000000000000e+00) (0, 0, 0.00000000000000000000e+00) (0, 0, 0.00000000000000000000e+00) (0, 0, 0.00000000000000000000e+00) (0, 0, 0.00000000000000000000e+00) (0, 0, 0.00000000000000000000e+00) (0, 0, 0.00000000000000000000e+00) (0, 0, 0.00000000000000000000e+00) (0, 0, 0.00000000000000000000e+00) (0, 0, 0.00000000000000000000e+00) (0, 0, 0.00000000000000000000e+00) (0, 0, 0.00000000000000000000e+00) (0, 0, 0.00000000000000000000e+00) (0, 0, 0.00000000000000000000e+00) (0, 0, 0.00000000000000000000e+00) (0, 0, 0.00000000000000000000e+00) (0, 0, 0.00000000000000000000e+00) (0, 0, 0.00000000000000000000e+00) (0, 0, 0.00000000000000000000e+00) (0, 0, 0.00000000000000000000e+00) (0, 0, 0.00000000000000000000e+00) (0, 0, 0.00000000000000000000e+00) (0, 0, 0.00000000000000000000e+00) (0, 0, 0.00000000000000000000e+00) (0, 0, 0.00000000000000000000e+00) (0, 0, 0.00000000000000000000e+00) (0, 0, 0.00000000000000000000e+00) (0, 0, 0.00000000000000000000e+00) (0, 0, 0.00000000000000000000e+00) (0, 0, 0.00000000000000000000e+00) (0, 0, 0.00000000000000000000e+00) (0, 0, 0.00000000000000000000e+00) (0, 0, 0.00000000000000000000e+00) (0, 0, 0.00000000000000000000e+00) (0, 0, 0.00000000000000000000e+00) (0, 0, 0.00000000000000000000e+00) (0, 0, 0.00000000000000000000e+00) (0, 0, 0.00000000000000000000e+00) (0, 0, 0.00000000000000000000e+00) (0, 0, 0.00000000000000000000e+00) (0, 0, 0.00000000000000000000e+00) (0, 0, 0.00000000000000000000e+00) (0, 0, 0.00000000000000000000e+00) (0, 0, 0.00000000000000000000e+00) (0, 0, 0.00000000000000000000e+00) (0, 0, 0.00000000000000000000e+00) (0, 0, 0.00000000000000000000e+00) (0, 0, 0.00000000000000000000e+00) (0, 0, 0.00000000000000000000e+00) (0, 0, 0.00000000000000000000e+00) (0, 0, 0.00000000000000000000e+00) (0, 0, 0.00000000000000000000e+00) (0, 0, 0.00000000000000000000e+00) (0, 0, 0.00000000000000000000e+00) (0, 0, 0.00000000000000000000e+00) (0, 0, 0.00000000000000000000e+00) (0, 0, 0.00000000000000000000e+00) (0, 0, 0.00000000000000000000e+00) (0, 0, 0.00000000000000000000e+00) (0, 0, 0.00000000000000000000e+00) (0, 0, 0.00000000000000000000e+00) (0, 0, 0.00000000000000000000e+00) (0, 0, 0.00000000000000000000e+00) (0, 0, 0.00000000000000000000e+00) (0, 0, 0.00000000000000000000e+00) (0, 0, 0.00000000000000000000e+00) (0, 0, 0.00000000000000000000e+00) (0, 0, 0.00000000000000000000e+00) (0, 0, 0.00000000000000000000e+00) (0, 0, 0.00000000000000000000e+00) (0, 0, 0.00000000000000000000e+00) (109, 5, 5.00000000000000000000e-01) (109, 5, 5.00000000000000000000e-01) (109, 5, 5.00000000000000000000e-01) (109, 5, 5.00000000000000000000e-01) (109, 5, 5.00000000000000000000e-01) (109, 5, 5.00000000000000000000e-01) (109, 5, 5.00000000000000000000e-01) (109, 5, 5.00000000000000000000e-01) (109, 5, 5.00000000000000000000e-01) (109, 5, 5.00000000000000000000e-01) (0, 5, 0.00000000000000000000e+00) (11, 5, 5.00000000000000000000e-01) (0, 5, 0.00000000000000000000e+00) 
connections (connected_to_neuron, weight)=(0, 6.29519641399383544922e-01) (1, -6.80996656417846679688e-01) (2, -2.87774145603179931641e-01) (3, 3.68370562791824340820e-01) (4, -2.55269914865493774414e-01) (5, -1.09349690377712249756e-01) (6, 4.35082286596298217773e-01) (7, -2.68888533115386962891e-01) (8, 4.47954982519149780273e-02) (9, 4.81470316648483276367e-01) (10, -2.58236050605773925781e-01) (11, -3.91483530402183532715e-02) (12, 4.60132181644439697266e-01) (13, -3.01586359739303588867e-01) (14, 8.15063656773418188095e-04) (15, 3.78799259662628173828e-01) (16, -1.97195231914520263672e-01) (17, -9.08339768648147583008e-02) (18, 5.49644291400909423828e-01) (19, -4.21020418405532836914e-01) (20, -1.06172516942024230957e-01) (21, 4.24815654754638671875e-01) (22, -2.37705051898956298828e-01) (23, -9.36082601547241210938e-02) (24, 4.16338682174682617188e-01) (25, -2.39997416734695434570e-01) (26, 3.60227338969707489014e-02) (27, 3.36251050233840942383e-01) (28, -1.75664201378822326660e-01) (29, -8.43383967876434326172e-02) (30, 4.58542793989181518555e-01) (31, -3.01320016384124755859e-01) (32, -5.44510632753372192383e-02) (33, 4.62558746337890625000e-01) (34, -2.67728805541992187500e-01) (35, 4.50046397745609283447e-02) (36, 4.56015408039093017578e-01) (37, -1.48284703493118286133e-01) (38, -7.84096792340278625488e-02) (39, 3.37355852127075195312e-01) (40, -1.84725016355514526367e-01) (41, 1.08055910095572471619e-02) (42, 4.60929125547409057617e-01) (43, -2.75546938180923461914e-01) (44, -1.33767113089561462402e-01) (45, 3.95280122756958007812e-01) (46, -2.48415455222129821777e-01) (47, -5.72786573320627212524e-03) (48, 4.17898803949356079102e-01) (49, -2.67805755138397216797e-01) (50, -4.66881971806287765503e-03) (51, 3.20328563451766967773e-01) (52, -3.45159888267517089844e-01) (53, -7.44166672229766845703e-02) (54, 5.24479985237121582031e-01) (55, -2.36661091446876525879e-01) (56, 3.07510960847139358521e-02) (57, 3.81874173879623413086e-01) (58, -2.23928838968276977539e-01) (59, -3.60202882438898086548e-03) (60, 4.62470710277557373047e-01) (61, -5.26089847087860107422e-01) (62, 5.75199723243713378906e-02) (63, 3.44296634197235107422e-01) (64, -4.19589042663574218750e-01) (65, -7.67002180218696594238e-02) (66, 3.10411483049392700195e-01) (67, -2.57801145315170288086e-01) (68, -9.15228575468063354492e-02) (69, 3.74894291162490844727e-01) (70, -2.36865982413291931152e-01) (71, -1.31115958094596862793e-01) (72, 4.78733688592910766602e-01) (73, -2.87554204463958740234e-01) (74, 6.92784145940095186234e-04) (75, 3.58188360929489135742e-01) (76, -2.31668129563331604004e-01) (77, -5.79735636711120605469e-02) (78, 5.03760039806365966797e-01) (79, -3.51676404476165771484e-01) (80, 3.29244397580623626709e-02) (81, 4.49988275766372680664e-01) (82, -3.06029289960861206055e-01) (83, 3.60601693391799926758e-02) (84, 3.10433804988861083984e-01) (85, -1.74377456307411193848e-01) (86, -6.23589009046554565430e-02) (87, 4.72504168748855590820e-01) (88, -3.12004387378692626953e-01) (89, -1.32111907005310058594e-01) (90, 6.92969918251037597656e-01) (91, -1.57305896282196044922e-01) (92, -4.12156758829951286316e-03) (93, 4.82028424739837646484e-01) (94, -1.53462514281272888184e-01) (95, 1.89930796623229980469e-02) (96, 5.19696652889251708984e-01) (97, -3.28463405370712280273e-01) (98, -8.82347449660301208496e-02) (99, 3.74228596687316894531e-01) (100, -2.36989527940750122070e-01) (101, 2.35299617052078247070e-02) (102, 3.84386450052261352539e-01) (103, -2.00731202960014343262e-01) (104, -1.32303565740585327148e-01) (105, 5.03451704978942871094e-01) (106, -1.46703153848648071289e-01) (107, -3.66785190999507904053e-03) (108, -1.04821431636810302734e+00) (0, -1.01871684193611145020e-01) (1, -1.23548138141632080078e+00) (2, -1.15963533520698547363e-01) (3, -8.35959240794181823730e-02) (4, -2.07493185997009277344e-01) (5, -6.20643459260463714600e-02) (6, -3.53700928390026092529e-02) (7, -2.08805292844772338867e-01) (8, 5.29316514730453491211e-02) (9, -6.70287013053894042969e-02) (10, -2.65602380037307739258e-01) (11, 6.44393116235733032227e-02) (12, -1.38118669390678405762e-01) (13, -1.28030672669410705566e-01) (14, -3.00748050212860107422e-02) (15, 1.20806507766246795654e-01) (16, -2.04500615596771240234e-01) (17, -1.69745907187461853027e-02) (18, -1.09028726816177368164e-01) (19, -3.39423090219497680664e-01) (20, -8.85895192623138427734e-02) (21, -9.03432630002498626709e-03) (22, -1.90052404999732971191e-01) (23, -9.46094468235969543457e-02) (24, -1.09620191156864166260e-01) (25, -1.80166101455688476562e+00) (26, -5.26070855557918548584e-02) (27, -1.10823221504688262939e-01) (28, -3.02229619026184082031e+00) (29, 7.24257230758666992188e-02) (30, -3.70021574199199676514e-02) (31, -6.96951985359191894531e-01) (32, 5.70268891751766204834e-02) (33, 3.50016839802265167236e-02) (34, -5.32718956470489501953e-01) (35, -8.76441076397895812988e-02) (36, 2.51084137707948684692e-02) (37, -2.46649131178855895996e-01) (38, -7.70474001765251159668e-02) (39, -9.60341840982437133789e-03) (40, -3.81664395332336425781e-01) (41, 4.52096052467823028564e-02) (42, -4.40075956284999847412e-02) (43, -1.21141839027404785156e+00) (44, 1.13271042704582214355e-01) (45, 5.82472840324044227600e-03) (46, -2.31183862686157226562e+00) (47, -5.04749715328216552734e-02) (48, -2.18184106051921844482e-02) (49, -1.71207106113433837891e+00) (50, -2.53020152449607849121e-02) (51, 3.45659293234348297119e-02) (52, -9.08717274665832519531e-01) (53, -8.53455588221549987793e-02) (54, 3.57941985130310058594e-02) (55, -7.42160156369209289551e-02) (56, 3.39166494086384773254e-03) (57, 2.71138101816177368164e-01) (58, -1.76248356699943542480e-01) (59, 1.29943981766700744629e-01) (60, 2.82020807266235351562e-01) (61, -2.84236460924148559570e-01) (62, 3.20765405893325805664e-01) (63, 2.38507211208343505859e-01) (64, -1.09826540946960449219e+00) (65, 6.37641251087188720703e-02) (66, 2.52140909433364868164e-02) (67, -4.03945595026016235352e-01) (68, 9.12504568696022033691e-02) (69, 1.14650785923004150391e-01) (70, -2.03717082738876342773e-01) (71, 5.20850382745265960693e-02) (72, 2.24000662565231323242e-01) (73, -4.59914542734622955322e-02) (74, -4.21143732964992523193e-02) (75, 2.92055875062942504883e-01) (76, -1.15397915244102478027e-01) (77, 1.26845479011535644531e-01) (78, 4.15833830833435058594e-01) (79, -5.72683624923229217529e-02) (80, -2.00951769948005676270e-02) (81, 5.07822155952453613281e-01) (82, -1.71199932694435119629e-01) (83, 8.36082622408866882324e-02) (84, 4.98001351952552795410e-02) (85, -1.66078031063079833984e-01) (86, 8.47598984837532043457e-02) (87, 9.62874442338943481445e-02) (88, -2.24225372076034545898e-01) (89, 2.51695930957794189453e-01) (90, 1.86443835496902465820e-01) (91, 1.00602330639958381653e-02) (92, 4.24512529373168945312e+00) (93, 8.83078575134277343750e-01) (94, 1.96492671966552734375e-03) (95, 2.33391141891479492188e+00) (96, 3.04098963737487792969e-01) (97, -1.22124411165714263916e-01) (98, 8.84635895490646362305e-02) (99, 7.79497325420379638672e-01) (100, -8.61088335514068603516e-02) (101, 1.56438037753105163574e-01) (102, 2.94328123331069946289e-01) (103, 1.07005760073661804199e-02) (104, 1.47772431373596191406e-01) (105, 3.18421626091003417969e+00) (106, -1.14700543880462646484e+00) (107, 3.90186452865600585938e+00) (108, -3.06380891799926757812e+00) (0, 3.68253946304321289062e-01) (1, 5.43940544128417968750e-01) (2, 4.61696058511734008789e-01) (3, 5.34700453281402587891e-01) (4, 7.00342476367950439453e-01) (5, 4.27889943122863769531e-01) (6, 2.09840703010559082031e+00) (7, 6.19026005268096923828e-01) (8, 5.04345476627349853516e-01) (9, 4.43367433547973632812e+00) (10, 5.60466527938842773438e-01) (11, 4.89155441522598266602e-01) (12, 1.49290382862091064453e+00) (13, 5.97656846046447753906e-01) (14, 4.35770899057388305664e-01) (15, 1.99570167064666748047e+00) (16, 3.85031253099441528320e-01) (17, 2.70376116037368774414e-01) (18, 2.81253129243850708008e-01) (19, 3.93883645534515380859e-01) (20, -4.37947027385234832764e-02) (21, 8.07048261165618896484e-01) (22, 4.07670706510543823242e-01) (23, 2.61250019073486328125e-01) (24, 9.99275028705596923828e-01) (25, 4.81647342443466186523e-01) (26, 3.34925979375839233398e-01) (27, 6.45000159740447998047e-01) (28, 5.67305266857147216797e-01) (29, 3.74630808830261230469e-01) (30, 3.19871455430984497070e-01) (31, 5.23851633071899414062e-01) (32, 2.94591963291168212891e-01) (33, 3.22839647531509399414e-01) (34, 4.35006678104400634766e-01) (35, 4.27299350500106811523e-01) (36, 1.40373811125755310059e-01) (37, 3.00037771463394165039e-01) (38, -4.68809509277343750000e+00) (39, 3.29718232154846191406e-01) (40, 3.28370124101638793945e-01) (41, 1.99563309550285339355e-01) (42, 2.21574708819389343262e-01) (43, 5.56350767612457275391e-01) (44, 3.98548930883407592773e-01) (45, 9.97985061258077621460e-03) (46, 2.79498368501663208008e-01) (47, 4.42394614219665527344e-01) (48, -3.74083369970321655273e-01) (49, -3.77182036638259887695e-01) (50, 4.97053146362304687500e-01) (51, -1.05825829505920410156e+00) (52, -4.12769436836242675781e-01) (53, 2.23506856709718704224e-02) (54, 5.64925968647003173828e-01) (55, 8.14009234309196472168e-02) (56, -1.92889392375946044922e-01) (57, 1.71944171190261840820e-01) (58, -2.00617775321006774902e-01) (59, 4.12972003221511840820e-01) (60, -4.24020916223526000977e-01) (61, -1.69696465134620666504e-01) (62, 4.28793936967849731445e-01) (63, -4.60575670003890991211e-01) (64, -3.16607058048248291016e-01) (65, 5.89911341667175292969e-01) (66, -1.97081053256988525391e+00) (67, -3.30719769001007080078e-01) (68, 2.30906531214714050293e-01) (69, -2.20814895629882812500e+00) (70, -4.63768303394317626953e-01) (71, 9.46661224588751792908e-04) (72, 6.29667997360229492188e-01) (73, -1.29618063569068908691e-01) (74, 4.55789119005203247070e-01) (75, -2.98925459384918212891e-01) (76, -2.91181474924087524414e-01) (77, 3.84573012590408325195e-01) (78, -4.96722728013992309570e-01) (79, -1.53055548667907714844e+00) (80, 4.54917818307876586914e-01) (81, -3.53168797492980957031e+00) (82, -1.65055263042449951172e+00) (83, 3.80358427762985229492e-01) (84, -4.98807954788208007812e+00) (85, -1.71118247509002685547e+00) (86, 2.18397662043571472168e-01) (87, -2.08012652397155761719e+00) (88, -4.63814705610275268555e-01) (89, -6.30901977419853210449e-02) (90, 5.23316979408264160156e-01) (91, 3.12285602092742919922e-01) (92, 4.02758359909057617188e-01) (93, -1.03361284732818603516e+00) (94, 5.56109007447957992554e-03) (95, 4.89098995923995971680e-01) (96, -1.16970658302307128906e+00) (97, 8.13384532928466796875e-01) (98, 3.95474672317504882812e-01) (99, -3.61722087860107421875e+00) (100, 4.29071873426437377930e-01) (101, 3.81906658411026000977e-01) (102, -1.50946688652038574219e+00) (103, 6.79451599717140197754e-02) (104, 3.66400539875030517578e-01) (105, -1.75162267684936523438e+00) (106, 1.18696942925453186035e-01) (107, 1.53009936213493347168e-01) (108, 4.99712657928466796875e+00) (0, -1.65564489364624023438e+00) (1, -3.39852273464202880859e-01) (2, 5.10250210762023925781e-01) (3, -3.45117032527923583984e-01) (4, 4.74324017763137817383e-01) (5, 5.66932916641235351562e-01) (6, 9.51818823814392089844e-02) (7, 6.07871353626251220703e-01) (8, 6.05537533760070800781e-01) (9, -1.69361889362335205078e-01) (10, 5.07633268833160400391e-01) (11, 6.85490131378173828125e-01) (12, -3.92404294013977050781e+00) (13, 4.59935456514358520508e-01) (14, 5.65103352069854736328e-01) (15, -9.36276853084564208984e-01) (16, 7.48109817504882812500e-01) (17, 7.38471984863281250000e-01) (18, -7.81277716159820556641e-01) (19, 4.83613699674606323242e-01) (20, 4.46955591440200805664e-01) (21, -1.19776256382465362549e-01) (22, 4.58821564912796020508e-01) (23, 6.50154232978820800781e-01) (24, -1.20916463434696197510e-01) (25, 4.09791529178619384766e-01) (26, 7.52985179424285888672e-01) (27, -2.59453535079956054688e-01) (28, 2.46304273605346679688e-01) (29, 6.64042711257934570312e-01) (30, -3.59135675430297851562e+00) (31, 2.57562905550003051758e-01) (32, 6.74668133258819580078e-01) (33, -1.91762819886207580566e-01) (34, 6.46502852439880371094e-01) (35, 5.77263057231903076172e-01) (36, -6.76466734148561954498e-04) (37, 3.54915440082550048828e-01) (38, 7.02487230300903320312e-01) (39, -1.46744474768638610840e-01) (40, 2.06194922327995300293e-01) (41, 5.58380544185638427734e-01) (42, -2.77832210063934326172e-01) (43, 2.90155470371246337891e-01) (44, 6.33137822151184082031e-01) (45, -3.41645598411560058594e-01) (46, 3.38076144456863403320e-01) (47, 6.17495357990264892578e-01) (48, -5.62582552433013916016e-01) (49, 2.61878848075866699219e-01) (50, 6.11792385578155517578e-01) (51, -5.44395565986633300781e-01) (52, 2.99439042806625366211e-01) (53, 6.72751367092132568359e-01) (54, -8.97495597600936889648e-02) (55, 3.39938580989837646484e-01) (56, 5.67713081836700439453e-01) (57, -6.02630794048309326172e-01) (58, -9.70137476921081542969e-01) (59, 6.40368759632110595703e-01) (60, -1.37761700153350830078e+00) (61, 6.98089748620986938477e-02) (62, 7.26273059844970703125e-01) (63, -1.26135301589965820312e+00) (64, 1.11013419926166534424e-01) (65, 6.59119367599487304688e-01) (66, -1.25662040710449218750e+00) (67, 1.77833497524261474609e-01) (68, 7.60262250900268554688e-01) (69, -1.31444859504699707031e+00) (70, 9.35449600219726562500e-02) (71, 7.59612679481506347656e-01) (72, -5.22983372211456298828e-01) (73, -2.95377194881439208984e-01) (74, 7.69806504249572753906e-01) (75, -9.71292853355407714844e-01) (76, -5.43783545494079589844e-01) (77, 7.01831459999084472656e-01) (78, -1.24113988876342773438e+00) (79, -4.43519949913024902344e-01) (80, 8.56586337089538574219e-01) (81, -4.69051647186279296875e+00) (82, -4.81833100318908691406e-01) (83, 7.27390944957733154297e-01) (84, -7.31435155868530273438e+00) (85, -1.10893361270427703857e-01) (86, 8.96634042263031005859e-01) (87, -1.39706587791442871094e+00) (88, 2.76387721300125122070e-01) (89, 7.94231057167053222656e-01) (90, -5.71623980998992919922e-01) (91, -1.94199010729789733887e-01) (92, 7.19997107982635498047e-01) (93, -9.34411287307739257812e-01) (94, -2.66600966453552246094e-01) (95, 5.91461181640625000000e-01) (96, -1.18673253059387207031e+00) (97, 4.55900520086288452148e-01) (98, 8.81078362464904785156e-01) (99, -6.59509515762329101562e+00) (100, 3.90763950347900390625e+00) (101, 1.19892787933349609375e+00) (102, -2.45045900344848632812e+00) (103, 3.88073205947875976562e-01) (104, 9.19898033142089843750e-01) (105, -1.23041260242462158203e+00) (106, 4.94074434041976928711e-01) (107, 7.37820208072662353516e-01) (108, 7.92754268646240234375e+00) (0, 4.28819686174392700195e-01) (1, -3.10671895742416381836e-01) (2, 8.63322466611862182617e-02) (3, 3.39755594730377197266e-01) (4, -3.57088357210159301758e-01) (5, 9.55934599041938781738e-02) (6, 3.29065769910812377930e-01) (7, -4.83973294496536254883e-01) (8, -3.30210357904434204102e-01) (9, 9.26524177193641662598e-02) (10, -3.98469775915145874023e-01) (11, -2.12171554565429687500e-01) (12, -6.08169920742511749268e-02) (13, -4.66759175062179565430e-01) (14, -2.67357617616653442383e-01) (15, 3.11807394027709960938e-01) (16, -2.33982473611831665039e-01) (17, -2.19751179218292236328e-01) (18, 4.55130428075790405273e-01) (19, -4.06210899353027343750e-01) (20, 1.68059155344963073730e-01) (21, 2.02119544148445129395e-01) (22, -1.64135849475860595703e+00) (23, 1.31512761116027832031e-01) (24, 2.07417517900466918945e-01) (25, -6.85034215450286865234e-01) (26, 1.91274732351303100586e-02) (27, -6.31174677982926368713e-03) (28, -4.65106278657913208008e-01) (29, 7.25861489772796630859e-02) (30, -2.02210277318954467773e-01) (31, -3.23069125413894653320e-01) (32, 1.24501526355743408203e-01) (33, 2.20643728971481323242e-01) (34, -3.43626707792282104492e-01) (35, 5.95840113237500190735e-03) (36, 4.01814401149749755859e-01) (37, -3.49379241466522216797e-01) (38, 3.28719802200794219971e-02) (39, 3.43306690454483032227e-01) (40, -9.47085320949554443359e-01) (41, 1.12379617989063262939e-01) (42, 2.56408005952835083008e-01) (43, -8.06589365005493164062e-01) (44, 1.48453369736671447754e-01) (45, 3.02364856004714965820e-01) (46, -4.46606665849685668945e-01) (47, 7.51431211829185485840e-02) (48, 1.76785111427307128906e-01) (49, -3.30148041248321533203e-01) (50, 7.88401812314987182617e-02) (51, 1.62999764084815979004e-01) (52, -2.26035386323928833008e-01) (53, 9.85192283987998962402e-02) (54, 4.50075268745422363281e-01) (55, -3.38875353336334228516e-01) (56, 7.21883997321128845215e-02) (57, 2.81597048044204711914e-01) (58, -5.02209305763244628906e-01) (59, 1.63875624537467956543e-01) (60, 3.39309930801391601562e-01) (61, -4.72944378852844238281e-01) (62, 9.93651300668716430664e-02) (63, 3.03886026144027709961e-01) (64, -4.83008891344070434570e-01) (65, 1.64104133844375610352e-01) (66, 3.41750591993331909180e-01) (67, -2.62189000844955444336e-01) (68, 1.80642679333686828613e-01) (69, 4.06282693147659301758e-01) (70, -2.33851224184036254883e-01) (71, 1.67967662215232849121e-01) (72, 5.16112804412841796875e-01) (73, -2.86030530929565429688e-01) (74, 5.85765801370143890381e-02) (75, 3.93978416919708251953e-01) (76, -2.00828984379768371582e-01) (77, 1.55871972441673278809e-01) (78, 2.94595062732696533203e-01) (79, -2.92382210493087768555e-01) (80, 9.59144979715347290039e-02) (81, 3.53101164102554321289e-01) (82, -2.82957255840301513672e-01) (83, 6.57375827431678771973e-02) (84, 2.64889895915985107422e-01) (85, -1.91440284252166748047e-01) (86, 7.13961422443389892578e-02) (87, 3.50326776504516601562e-01) (88, -1.60445615649223327637e-01) (89, 1.26834064722061157227e-01) (90, 6.09291672706604003906e-01) (91, -3.18299196660518646240e-02) (92, 4.27488744258880615234e-01) (93, 5.03759622573852539062e-01) (94, -2.61843800544738769531e-01) (95, 1.97504848241806030273e-01) (96, 4.64881807565689086914e-01) (97, -1.60720065236091613770e-01) (98, 1.66645735502243041992e-01) (99, 4.19156342744827270508e-01) (100, -1.55072972178459167480e-01) (101, 2.75243580341339111328e-01) (102, 4.43924546241760253906e-01) (103, -2.09558755159378051758e-01) (104, 2.91466414928436279297e-01) (105, 1.63692307472229003906e+00) (106, -2.22117900848388671875e-01) (107, 4.56652700901031494141e-01) (108, -6.77870929241180419922e-01) (0, -2.11047038435935974121e-01) (1, -1.46737456321716308594e-01) (2, 2.62624800205230712891e-01) (3, -2.23752021789550781250e-01) (4, 1.75551950931549072266e-01) (5, 8.58406871557235717773e-02) (6, -1.25663623213768005371e-01) (7, 1.14061392843723297119e-01) (8, 1.57205998897552490234e-01) (9, -2.02289611101150512695e-01) (10, 9.84605178236961364746e-02) (11, 2.46714994311332702637e-01) (12, -1.18124350905418395996e-01) (13, 2.47549340128898620605e-01) (14, 1.11395552754402160645e-01) (15, -1.07125654816627502441e-01) (16, 3.05028200149536132812e-01) (17, 2.07154929637908935547e-01) (18, -2.26886138319969177246e-01) (19, 1.39469653367996215820e-01) (20, 1.79692551493644714355e-01) (21, -1.42055416107177734375e+00) (22, 1.29233181476593017578e-01) (23, 1.62020698189735412598e-01) (24, -4.32925075292587280273e-01) (25, 4.33045104146003723145e-02) (26, 1.75459906458854675293e-01) (27, -4.73749011754989624023e-01) (28, 5.98730184137821197510e-02) (29, 1.49276286363601684570e-01) (30, -1.83314457535743713379e-01) (31, 8.31808894872665405273e-02) (32, 2.83112198114395141602e-01) (33, -1.88839107751846313477e-01) (34, 2.42729797959327697754e-01) (35, 2.03839987516403198242e-01) (36, -1.51418343186378479004e-01) (37, 1.03341795504093170166e-01) (38, 2.29275330901145935059e-01) (39, -5.22865831851959228516e-01) (40, 1.53543472290039062500e-01) (41, 2.60610014200210571289e-01) (42, -7.66341924667358398438e-01) (43, 1.52229145169258117676e-01) (44, 2.32313171029090881348e-01) (45, -7.39919960498809814453e-01) (46, 6.93033784627914428711e-02) (47, 2.25573599338531494141e-01) (48, -2.88208872079849243164e-01) (49, 1.45970985293388366699e-01) (50, 2.00733214616775512695e-01) (51, -2.19320222735404968262e-01) (52, 1.83111876249313354492e-01) (53, 1.26701936125755310059e-01) (54, -6.02382309734821319580e-02) (55, 1.94543167948722839355e-01) (56, 1.05261385440826416016e-01) (57, -8.60046207904815673828e-01) (58, 4.83774505555629730225e-02) (59, 9.29015129804611206055e-02) (60, -7.43510305881500244141e-01) (61, 1.81229174137115478516e-01) (62, 1.26423910260200500488e-01) (63, -6.10765933990478515625e-01) (64, 2.47046783566474914551e-01) (65, 2.81118422746658325195e-01) (66, -4.39579993486404418945e-01) (67, 1.09995827078819274902e-01) (68, 2.07058340311050415039e-01) (69, -2.76558518409729003906e-01) (70, 2.36389875411987304688e-01) (71, 1.70648336410522460938e-01) (72, -1.74625739455223083496e-01) (73, 2.19892248511314392090e-01) (74, 2.26311564445495605469e-01) (75, -7.26560473442077636719e-01) (76, 6.51858747005462646484e-02) (77, 2.15507596731185913086e-01) (78, -5.82657396793365478516e-01) (79, 1.97908163070678710938e-01) (80, 9.72876101732254028320e-02) (81, -4.85565364360809326172e-01) (82, 2.47603610157966613770e-01) (83, 1.94316282868385314941e-01) (84, -3.88778120279312133789e-01) (85, 1.96615934371948242188e-01) (86, 2.04017937183380126953e-01) (87, -1.82859018445014953613e-01) (88, 2.17220678925514221191e-01) (89, 2.42602899670600891113e-01) (90, 8.17736051976680755615e-03) (91, 2.09703475236892700195e-01) (92, 1.91245242953300476074e-01) (93, -1.81585833430290222168e-01) (94, 1.96283236145973205566e-01) (95, 1.14378914237022399902e-01) (96, -3.84650707244873046875e-01) (97, 1.20801910758018493652e-01) (98, 1.41039565205574035645e-01) (99, -3.83668422698974609375e-01) (100, 1.66107445955276489258e-01) (101, 2.84936100244522094727e-01) (102, -3.32404971122741699219e-01) (103, 1.94272875785827636719e-01) (104, 3.02186310291290283203e-01) (105, -2.03250288963317871094e-01) (106, 1.66579678654670715332e-01) (107, 1.39128267765045166016e-01) (108, -1.48648187518119812012e-01) (0, -3.92149724066257476807e-02) (1, 1.36530846357345581055e-02) (2, 4.32996749877929687500e-02) (3, -2.53669973462820053101e-02) (4, 2.67034973949193954468e-02) (5, 1.95949697494506835938e+00) (6, -8.83748084306716918945e-02) (7, -7.79546126723289489746e-02) (8, 1.10302522778511047363e-01) (9, -1.06137230992317199707e-01) (10, -2.10050251334905624390e-02) (11, 2.12200284004211425781e-01) (12, 2.04476642608642578125e+00) (13, -6.45832419395446777344e-01) (14, 1.55103111267089843750e+00) (15, 9.42861199378967285156e-01) (16, -7.05096662044525146484e-01) (17, 9.07129096984863281250e+00) (18, -1.58672556281089782715e-01) (19, -9.44492965936660766602e-02) (20, -4.01322096586227416992e-02) (21, -4.04214933514595031738e-02) (22, -1.32543057203292846680e-01) (23, -2.76603028178215026855e-02) (24, -7.29822516441345214844e-02) (25, -3.16654920578002929688e-01) (26, -5.87327107787132263184e-02) (27, 5.08411638438701629639e-02) (28, -4.44431751966476440430e-01) (29, 1.10156480222940444946e-02) (30, -9.60493311285972595215e-02) (31, -5.37460669875144958496e-02) (32, 7.23926126956939697266e-02) (33, 4.56074513494968414307e-02) (34, -1.55530273914337158203e-01) (35, 1.06405651569366455078e+00) (36, -3.02465111017227172852e-01) (37, -3.34815323352813720703e-01) (38, -3.47100235521793365479e-02) (39, -3.16783159971237182617e-01) (40, -3.11882257461547851562e-01) (41, -4.10498231649398803711e-02) (42, -3.15342366695404052734e-01) (43, -1.20529580116271972656e+00) (44, -1.29296720027923583984e-01) (45, -8.53829458355903625488e-02) (46, -9.17729556560516357422e-01) (47, -4.38069142401218414307e-02) (48, 6.82753697037696838379e-02) (49, -6.87013566493988037109e-02) (50, -5.27411624789237976074e-02) (51, 1.07114529609680175781e+00) (52, -1.20883516967296600342e-01) (53, 5.41756786406040191650e-02) (54, -5.68259537220001220703e-01) (55, -4.57701414823532104492e-01) (56, -8.02646577358245849609e-02) (57, -3.50063621997833251953e-01) (58, -2.69561290740966796875e-01) (59, -4.61453236639499664307e-02) (60, -2.11074650287628173828e-01) (61, -7.86633253097534179688e-01) (62, -1.09188549220561981201e-01) (63, -2.96995759010314941406e-01) (64, -1.83193755149841308594e+00) (65, -7.94704258441925048828e-02) (66, 9.62764248251914978027e-02) (67, -2.32817500829696655273e-01) (68, 2.30070967227220535278e-02) (69, 1.07304513454437255859e+00) (70, -4.91800568997859954834e-02) (71, -6.79837912321090698242e-02) (72, -9.77097630500793457031e-01) (73, -6.82283282279968261719e-01) (74, -1.86982423067092895508e-01) (75, -4.18389827013015747070e-01) (76, -3.03668797016143798828e-01) (77, -1.55179038643836975098e-01) (78, -2.44176000356674194336e-01) (79, -8.55980813503265380859e-01) (80, 6.20470335707068443298e-03) (81, -2.98674643039703369141e-01) (82, -7.65092611312866210938e-01) (83, -1.21945954859256744385e-01) (84, 6.27744197845458984375e-01) (85, -2.83389002084732055664e-01) (86, 4.08366061747074127197e-02) (87, 5.42651653289794921875e-01) (88, -3.49745675921440124512e-02) (89, -5.21653592586517333984e-02) (90, -1.09186697006225585938e+00) (91, -7.79543638229370117188e-01) (92, -1.17993116378784179688e+00) (93, -3.62916350364685058594e-01) (94, -2.18014657497406005859e-01) (95, -1.78708150982856750488e-01) (96, -2.42794364690780639648e-01) (97, -4.74868685007095336914e-01) (98, -9.22597572207450866699e-02) (99, -2.19508022069931030273e-01) (100, -5.18107593059539794922e-01) (101, -9.81475785374641418457e-02) (102, 3.06171011179685592651e-02) (103, -3.09772312641143798828e-01) (104, -7.85624161362648010254e-02) (105, 5.00470161437988281250e-01) (106, -4.75879684090614318848e-02) (107, -1.30224563181400299072e-02) (108, -1.68306076526641845703e+00) (0, -9.29256260395050048828e-01) (1, 2.38162890076637268066e-01) (2, 8.75578671693801879883e-02) (3, -1.18373870849609375000e+00) (4, -1.00757740437984466553e-01) (5, -1.22215248644351959229e-01) (6, -1.18738085031509399414e-01) (7, 2.12102476507425308228e-02) (8, -1.67790293693542480469e-01) (9, -2.75326997041702270508e-01) (10, -9.39144119620323181152e-02) (11, -5.18562011420726776123e-02) (12, -1.05586409568786621094e-01) (13, -1.95103928446769714355e-01) (14, -1.10957004129886627197e-01) (15, -3.48466306924819946289e-01) (16, 3.92642647027969360352e-01) (17, 1.69273525476455688477e-01) (18, -1.31961464881896972656e-01) (19, -2.05440586432814598083e-03) (20, -2.53876686096191406250e-01) (21, -3.79991739988327026367e-01) (22, -1.36726707220077514648e-01) (23, -8.53693410754203796387e-02) (24, -3.99794489145278930664e-01) (25, 6.17049224674701690674e-02) (26, -6.29057660698890686035e-02) (27, -3.25342118740081787109e-01) (28, 4.54373434185981750488e-02) (29, -2.94833462685346603394e-02) (30, -3.51184695959091186523e-01) (31, -8.89931898564100265503e-03) (32, 1.12537555396556854248e-01) (33, -4.06200110912322998047e-01) (34, 7.80459165573120117188e-01) (35, 8.43774750828742980957e-02) (36, -1.72014981508255004883e-01) (37, 3.82852740585803985596e-02) (38, -4.97369974851608276367e-01) (39, -2.63293296098709106445e-01) (40, 1.32093755528330802917e-02) (41, -3.24134789407253265381e-02) (42, -1.71520605683326721191e-01) (43, 7.69901931285858154297e-01) (44, -1.58116042613983154297e-01) (45, -1.50195792317390441895e-01) (46, 7.54198908805847167969e-01) (47, -1.00892141461372375488e-01) (48, -1.35422861576080322266e+00) (49, 2.47560515999794006348e-01) (50, 2.73788779973983764648e-01) (51, -2.12034630775451660156e+00) (52, 1.17192161083221435547e+00) (53, 1.88571125268936157227e-01) (54, -2.05959752202033996582e-01) (55, 6.95633441209793090820e-02) (56, -5.66033661365509033203e-01) (57, -2.49729931354522705078e-01) (58, -2.27389950305223464966e-02) (59, -1.21347054839134216309e-01) (60, -5.04754126071929931641e-01) (61, 5.57957112789154052734e-01) (62, -1.65681853890419006348e-01) (63, -3.66703927516937255859e-01) (64, 1.49002146720886230469e+00) (65, -5.69613650441169738770e-02) (66, -4.36855465173721313477e-01) (67, 4.36938226222991943359e-01) (68, 3.85887742042541503906e-01) (69, -5.42307078838348388672e-01) (70, 2.51965552568435668945e-01) (71, 1.12598970532417297363e-01) (72, -3.04197758436203002930e-01) (73, -6.95942714810371398926e-02) (74, -4.35403361916542053223e-02) (75, -2.53702104091644287109e-01) (76, 1.11586906015872955322e-01) (77, 1.70110091567039489746e-01) (78, -2.79009938240051269531e-01) (79, 1.25770723819732666016e+00) (80, -2.35793039202690124512e-01) (81, -8.56986820697784423828e-01) (82, 3.94495427608489990234e-01) (83, -8.25331807136535644531e-02) (84, -3.08763056993484497070e-01) (85, 3.24395634233951568604e-02) (86, 4.44244556128978729248e-02) (87, -8.38947355747222900391e-01) (88, -1.13810658454895019531e-01) (89, 8.15410912036895751953e-02) (90, -1.31302678585052490234e+00) (91, -2.69241482019424438477e-02) (92, 1.76033392548561096191e-01) (93, -1.12600016593933105469e+00) (94, 1.07257261872291564941e-01) (95, 1.81997701525688171387e-01) (96, -8.67743968963623046875e-01) (97, 6.79301202297210693359e-01) (98, -2.65203602612018585205e-02) (99, -8.85993421077728271484e-01) (100, 1.00720369815826416016e+00) (101, -1.49709358811378479004e-01) (102, -6.37508988380432128906e-01) (103, 3.96422803401947021484e-01) (104, -1.34766697883605957031e-01) (105, -9.23220217227935791016e-01) (106, 7.05379605293273925781e-01) (107, 1.84790089726448059082e-01) (108, 1.02314591407775878906e+00) (0, 5.99847316741943359375e-01) (1, -2.83677220344543457031e-01) (2, -1.86685398221015930176e-01) (3, 3.73286604881286621094e-01) (4, -1.87401190400123596191e-01) (5, -4.97350580990314483643e-02) (6, 3.65043520927429199219e-01) (7, -2.25869610905647277832e-01) (8, -6.23246654868125915527e-02) (9, 3.43515843152999877930e-01) (10, -1.98886156082153320312e-01) (11, 4.01549749076366424561e-02) (12, 3.84382128715515136719e-01) (13, -1.65487259626388549805e-01) (14, -8.08030143380165100098e-02) (15, 7.24885582923889160156e-01) (16, -1.54546394944190979004e-01) (17, -8.23773667216300964355e-02) (18, 4.29332971572875976562e-01) (19, -2.03323051333427429199e-01) (20, -3.90415340662002563477e-02) (21, 3.95633429288864135742e-01) (22, -3.27025055885314941406e-01) (23, 2.95879896730184555054e-02) (24, 5.11518120765686035156e-01) (25, -2.08698704838752746582e-01) (26, 4.87829260528087615967e-02) (27, 3.77216130495071411133e-01) (28, -2.17489629983901977539e-01) (29, 3.82819063961505889893e-02) (30, 4.62277919054031372070e-01) (31, -1.53534233570098876953e-01) (32, -7.70437419414520263672e-02) (33, 4.06630009412765502930e-01) (34, -2.87299811840057373047e-01) (35, -1.12181141972541809082e-01) (36, 5.38050949573516845703e-01) (37, -2.62024998664855957031e-01) (38, -3.76294776797294616699e-02) (39, 3.72627645730972290039e-01) (40, -2.76926130056381225586e-01) (41, -8.22645351290702819824e-02) (42, 3.76379460096359252930e-01) (43, -2.15790957212448120117e-01) (44, -1.07416316866874694824e-01) (45, 4.31393533945083618164e-01) (46, -2.17971414327621459961e-01) (47, 4.21409569680690765381e-02) (48, 4.48559910058975219727e-01) (49, -3.06389600038528442383e-01) (50, -1.61109920591115951538e-02) (51, 4.17969822883605957031e-01) (52, -2.11684182286262512207e-01) (53, 9.34175401926040649414e-03) (54, 4.05855089426040649414e-01) (55, -3.11123996973037719727e-01) (56, -6.33203238248825073242e-02) (57, 3.70189189910888671875e-01) (58, -3.28108340501785278320e-01) (59, -1.41184896230697631836e-01) (60, 3.63005131483078002930e-01) (61, -3.52192491292953491211e-01) (62, 5.17338700592517852783e-02) (63, 4.35118257999420166016e-01) (64, -2.41118595004081726074e-01) (65, -1.09038755297660827637e-01) (66, 4.36392784118652343750e-01) (67, -2.32430204749107360840e-01) (68, -3.48881110548973083496e-02) (69, 3.59231919050216674805e-01) (70, -1.55996873974800109863e-01) (71, 5.29867894947528839111e-02) (72, 4.52628523111343383789e-01) (73, -3.38845342397689819336e-01) (74, -2.48633958399295806885e-02) (75, 4.28299993276596069336e-01) (76, -2.78131455183029174805e-01) (77, -1.00465074181556701660e-01) (78, 4.15396839380264282227e-01) (79, -3.40911120176315307617e-01) (80, -4.41727600991725921631e-02) (81, 3.57938975095748901367e-01) (82, -2.14210540056228637695e-01) (83, -1.30791723728179931641e-01) (84, 5.11071920394897460938e-01) (85, -3.02513271570205688477e-01) (86, -9.27097424864768981934e-02) (87, 3.95298719406127929688e-01) (88, -2.10981234908103942871e-01) (89, -6.29510404542088508606e-03) (90, 4.77388858795166015625e-01) (91, -1.84748560190200805664e-01) (92, 2.76996474713087081909e-02) (93, 3.61293941736221313477e-01) (94, -2.99850225448608398438e-01) (95, -9.03541669249534606934e-02) (96, 3.95609021186828613281e-01) (97, -1.71746775507926940918e-01) (98, 4.46328893303871154785e-02) (99, 5.28465211391448974609e-01) (100, -3.10543149709701538086e-01) (101, 1.65942814201116561890e-02) (102, 5.16494274139404296875e-01) (103, -1.89502179622650146484e-01) (104, 2.89974622428417205811e-02) (105, 5.01363813877105712891e-01) (106, -2.52704620361328125000e-01) (107, -6.66203722357749938965e-02) (108, -1.16979718208312988281e+00) (0, 3.17353343963623046875e+00) (1, -2.14420810341835021973e-01) (2, -9.64786857366561889648e-03) (3, 1.00832784175872802734e+00) (4, -2.68841236829757690430e-01) (5, -2.90994420647621154785e-02) (6, 6.92894995212554931641e-01) (7, -2.35436618328094482422e-01) (8, 1.38703035190701484680e-02) (9, 3.78410637378692626953e-01) (10, -3.36957693099975585938e-01) (11, -6.09225071966648101807e-02) (12, 4.26951438188552856445e-01) (13, -1.85074731707572937012e-01) (14, -1.07335664331912994385e-01) (15, 5.47652721405029296875e-01) (16, -3.21166098117828369141e-01) (17, -1.85325518250465393066e-02) (18, 2.04034066200256347656e+00) (19, -1.45840704441070556641e-01) (20, -1.06099192053079605103e-02) (21, 6.23090147972106933594e-01) (22, -1.50086522102355957031e-01) (23, -7.93362259864807128906e-02) (24, 4.88714545965194702148e-01) (25, -2.22177505493164062500e-01) (26, -1.18573777377605438232e-01) (27, 4.61185067892074584961e-01) (28, -1.73925429582595825195e-01) (29, -6.27978220582008361816e-02) (30, 4.31753575801849365234e-01) (31, -2.21588656306266784668e-01) (32, 3.38264070451259613037e-02) (33, 3.17851305007934570312e-01) (34, -2.10579425096511840820e-01) (35, -1.08140736818313598633e-01) (36, 6.06306493282318115234e-01) (37, -2.24354892969131469727e-01) (38, -1.71240384224802255630e-03) (39, 4.00074183940887451172e-01) (40, -2.06455647945404052734e-01) (41, -6.95622758939862251282e-03) (42, 4.73259031772613525391e-01) (43, -3.39571684598922729492e-01) (44, -5.08241914212703704834e-02) (45, 4.90057617425918579102e-01) (46, -3.75058710575103759766e-01) (47, -5.00237196683883666992e-02) (48, 3.68059724569320678711e-01) (49, -2.79879957437515258789e-01) (50, -8.84434953331947326660e-02) (51, 4.61837112903594970703e-01) (52, -2.18521043658256530762e-01) (53, -9.96641665697097778320e-02) (54, 4.71865177154541015625e-01) (55, -1.70027717947959899902e-01) (56, 2.05864310264587402344e-02) (57, 3.58920395374298095703e-01) (58, -2.41192147135734558105e-01) (59, -3.57388965785503387451e-02) (60, 4.36645865440368652344e-01) (61, -5.74992775917053222656e-01) (62, -8.76623019576072692871e-02) (63, 3.99985313415527343750e-01) (64, -4.12343889474868774414e-01) (65, 3.80536727607250213623e-02) (66, 4.12268429994583129883e-01) (67, -3.55504810810089111328e-01) (68, -1.21493428945541381836e-01) (69, 3.29481780529022216797e-01) (70, -2.84349054098129272461e-01) (71, -2.74553894996643066406e-01) (72, 4.18089121580123901367e-01) (73, -3.44530045986175537109e-01) (74, -1.16325683891773223877e-01) (75, 3.70588779449462890625e-01) (76, -4.25126433372497558594e-01) (77, -1.13527670502662658691e-01) (78, 4.60064500570297241211e-01) (79, -4.21141624450683593750e-01) (80, -2.71506886929273605347e-02) (81, 3.16529572010040283203e-01) (82, -4.35622006654739379883e-01) (83, -8.64264219999313354492e-02) (84, 3.54370325803756713867e-01) (85, -3.34082394838333129883e-01) (86, -3.95433604717254638672e-01) (87, 2.44366899132728576660e-01) (88, -4.07106697559356689453e-01) (89, -5.06285607814788818359e-01) (90, 7.41909563541412353516e-01) (91, -2.59290665388107299805e-01) (92, -7.41933360695838928223e-02) (93, 3.69697481393814086914e-01) (94, -6.24793410301208496094e-01) (95, -4.41388599574565887451e-02) (96, 3.29553782939910888672e-01) (97, -2.61838674545288085938e-01) (98, -2.77955140918493270874e-02) (99, 4.33114945888519287109e-01) (100, -4.14505749940872192383e-01) (101, -1.40554845333099365234e-01) (102, 4.47113901376724243164e-01) (103, -4.09568816423416137695e-01) (104, -3.88746261596679687500e-01) (105, -3.97821143269538879395e-03) (106, -3.43096166849136352539e-01) (107, -1.94496259093284606934e-01) (108, -9.88564670085906982422e-01) (109, 4.17843371629714965820e-01) (110, -7.84537792205810546875e-01) (111, 4.71285879611968994141e-01) (112, 2.57466018199920654297e-01) (113, 1.55481898784637451172e+00) (114, 8.38952779769897460938e-01) (115, -1.86512812972068786621e-01) (116, 3.75367432832717895508e-01) (117, 4.78975892066955566406e-01) (118, 5.13896763324737548828e-01) (119, -1.51020228862762451172e-01) 
