FANN_FLO_2.1
num_layers=3
learning_rate=0.700000
connection_rate=1.000000
network_type=0
learning_momentum=0.000000
training_algorithm=2
train_error_function=1
train_stop_function=0
cascade_output_change_fraction=0.010000
quickprop_decay=-0.000100
quickprop_mu=1.750000
rprop_increase_factor=1.200000
rprop_decrease_factor=0.500000
rprop_delta_min=0.000000
rprop_delta_max=50.000000
rprop_delta_zero=0.100000
cascade_output_stagnation_epochs=12
cascade_candidate_change_fraction=0.010000
cascade_candidate_stagnation_epochs=12
cascade_max_out_epochs=150
cascade_max_cand_epochs=150
cascade_num_candidate_groups=2
bit_fail_limit=3.49999994039535522461e-01
cascade_candidate_limit=1.00000000000000000000e+03
cascade_weight_multiplier=4.00000005960464477539e-01
cascade_activation_functions_count=10
cascade_activation_functions=3 5 7 8 10 11 14 15 16 17 
cascade_activation_steepnesses_count=4
cascade_activation_steepnesses=2.50000000000000000000e-01 5.00000000000000000000e-01 7.50000000000000000000e-01 1.00000000000000000000e+00 
layer_sizes=76 13 2 
scale_included=1
scale_mean_in=0.508541 0.487435 0.542107 0.509013 0.487511 0.541908 0.509289 0.487619 0.541711 0.509419 0.487707 0.541539 0.509795 0.487829 0.541352 0.508701 0.487400 0.542171 0.509196 0.487478 0.541987 0.509188 0.487628 0.541760 0.509490 0.487687 0.541573 0.510022 0.487801 0.541411 0.508848 0.487376 0.542209 0.509024 0.487469 0.541968 0.509455 0.487572 0.541807 0.509669 0.487691 0.541545 0.510156 0.487787 0.541431 0.508753 0.487371 0.542150 0.508992 0.487536 0.541898 0.509456 0.487603 0.541705 0.509621 0.487715 0.541526 0.510150 0.487774 0.541393 0.508807 0.487412 0.542040 0.508813 0.487563 0.541782 0.509356 0.487611 0.541667 0.509604 0.487724 0.541485 0.510093 0.487794 0.541357 
scale_deviation_in=0.237821 0.030062 0.054113 0.237625 0.029985 0.054043 0.237404 0.029972 0.053957 0.236738 0.029974 0.053953 0.236284 0.029975 0.053882 0.237881 0.030068 0.054278 0.237696 0.029991 0.054163 0.237206 0.029995 0.054085 0.236683 0.029973 0.053950 0.236196 0.029966 0.053923 0.237709 0.030053 0.054236 0.237537 0.030016 0.054162 0.237175 0.029986 0.054101 0.236861 0.029961 0.053949 0.236355 0.029938 0.053911 0.237718 0.030024 0.054131 0.237579 0.030001 0.054022 0.237214 0.029975 0.053962 0.236943 0.029988 0.053940 0.236241 0.029940 0.053889 0.237898 0.030071 0.054070 0.237468 0.030031 0.053951 0.237016 0.029979 0.053996 0.236793 0.029996 0.053952 0.236331 0.029996 0.053886 
scale_new_min_in=0.000000 0.000000 0.000000 0.000000 0.000000 0.000000 0.000000 0.000000 0.000000 0.000000 0.000000 0.000000 0.000000 0.000000 0.000000 0.000000 0.000000 0.000000 0.000000 0.000000 0.000000 0.000000 0.000000 0.000000 0.000000 0.000000 0.000000 0.000000 0.000000 0.000000 0.000000 0.000000 0.000000 0.000000 0.000000 0.000000 0.000000 0.000000 0.000000 0.000000 0.000000 0.000000 0.000000 0.000000 0.000000 0.000000 0.000000 0.000000 0.000000 0.000000 0.000000 0.000000 0.000000 0.000000 0.000000 0.000000 0.000000 0.000000 0.000000 0.000000 0.000000 0.000000 0.000000 0.000000 0.000000 0.000000 0.000000 0.000000 0.000000 0.000000 0.000000 0.000000 0.000000 0.000000 0.000000 
scale_factor_in=0.500000 0.500000 0.500000 0.500000 0.500000 0.500000 0.500000 0.500000 0.500000 0.500000 0.500000 0.500000 0.500000 0.500000 0.500000 0.500000 0.500000 0.500000 0.500000 0.500000 0.500000 0.500000 0.500000 0.500000 0.500000 0.500000 0.500000 0.500000 0.500000 0.500000 0.500000 0.500000 0.500000 0.500000 0.500000 0.500000 0.500000 0.500000 0.500000 0.500000 0.500000 0.500000 0.500000 0.500000 0.500000 0.500000 0.500000 0.500000 0.500000 0.500000 0.500000 0.500000 0.500000 0.500000 0.500000 0.500000 0.500000 0.500000 0.500000 0.500000 0.500000 0.500000 0.500000 0.500000 0.500000 0.500000 0.500000 0.500000 0.500000 0.500000 0.500000 0.500000 0.500000 0.500000 0.500000 
scale_mean_out=0.390711 
scale_deviation_out=0.487911 
scale_new_min_out=0.000000 
scale_factor_out=0.500000 
neurons (num_inputs, activation_function, activation_steepness)=(0, 0, 0.00000000000000000000e+00) (0, 0, 0.00000000000000000000e+00) (0, 0, 0.00000000000000000000e+00) (0, 0, 0.00000000000000000000e+00) (0, 0, 0.00000000000000000000e+00) (0, 0, 0.00000000000000000000e+00) (0, 0, 0.00000000000000000000e+00) (0, 0, 0.00000000000000000000e+00) (0, 0, 0.00000000000000000000e+00) (0, 0, 0.00000000000000000000e+00) (0, 0, 0.00000000000000000000e+00) (0, 0, 0.00000000000000000000e+00) (0, 0, 0.00000000000000000000e+00) (0, 0, 0.00000000000000000000e+00) (0, 0, 0.00000000000000000000e+00) (0, 0, 0.00000000000000000000e+00) (0, 0, 0.00000000000000000000e+00) (0, 0, 0.00000000000000000000e+00) (0, 0, 0.00000000000000000000e+00) (0, 0, 0.00000000000000000000e+00) (0, 0, 0.00000000000000000000e+00) (0, 0, 0.00000000000000000000e+00) (0, 0, 0.00000000000000000000e+00) (0, 0, 0.00000000000000000000e+00) (0, 0, 0.00000000000000000000e+00) (0, 0, 0.00000000000000000000e+00) (0, 0, 0.00000000000000000000e+00) (0, 0, 0.00000000000000000000e+00) (0, 0, 0.00000000000000000000e+00) (0, 0, 0.00000000000000000000e+00) (0, 0, 0.00000000000000000000e+00) (0, 0, 0.00000000000000000000e+00) (0, 0, 0.00000000000000000000e+00) (0, 0, 0.00000000000000000000e+00) (0, 0, 0.00000000000000000000e+00) (0, 0, 0.00000000000000000000e+00) (0, 0, 0.00000000000000000000e+00) (0, 0, 0.00000000000000000000e+00) (0, 0, 0.00000000000000000000e+00) (0, 0, 0.00000000000000000000e+00) (0, 0, 0.00000000000000000000e+00) (0, 0, 0.00000000000000000000e+00) (0, 0, 0.00000000000000000000e+00) (0, 0, 0.00000000000000000000e+00) (0, 0, 0.00000000000000000000e+00) (0, 0, 0.00000000000000000000e+00) (0, 0, 0.00000000000000000000e+00) (0, 0, 0.00000000000000000000e+00) (0, 0, 0.00000000000000000000e+00) (0, 0, 0.00000000000000000000e+00) (0, 0, 0.00000000000000000000e+00) (0, 0, 0.00000000000000000000e+00) (0, 0, 0.00000000000000000000e+00) (0, 0, 0.00000000000000000000e+00) (0, 0, 0.00000000000000000000e+00) (0, 0, 0.00000000000000000000e+00) (0, 0, 0.00000000000000000000e+00) (0, 0, 0.00000000000000000000e+00) (0, 0, 0.00000000000000000000e+00) (0, 0, 0.00000000000000000000e+00) (0, 0, 0.00000000000000000000e+00) (0, 0, 0.00000000000000000000e+00) (0, 0, 0.00000000000000000000e+00) (0, 0, 0.00000000000000000000e+00) (0, 0, 0.00000000000000000000e+00) (0, 0, 0.00000000000000000000e+00) (0, 0, 0.00000000000000000000e+00) (0, 0, 0.00000000000000000000e+00) (0, 0, 0.00000000000000000000e+00) (0, 0, 0.00000000000000000000e+00) (0, 0, 0.00000000000000000000e+00) (0, 0, 0.00000000000000000000e+00) (0, 0, 0.00000000000000000000e+00) (0, 0, 0.00000000000000000000e+00) (0, 0, 0.00000000000000000000e+00) (0, 0, 0.00000000000000000000e+00) (76, 3, 5.00000000000000000000e-01) (76, 3, 5.00000000000000000000e-01) (76, 3, 5.00000000000000000000e-01) (76, 3, 5.00000000000000000000e-01) (76, 3, 5.00000000000000000000e-01) (76, 3, 5.00000000000000000000e-01) (76, 3, 5.00000000000000000000e-01) (76, 3, 5.00000000000000000000e-01) (76, 3, 5.00000000000000000000e-01) (76, 3, 5.00000000000000000000e-01) (76, 3, 5.00000000000000000000e-01) (76, 3, 5.00000000000000000000e-01) (0, 3, 0.00000000000000000000e+00) (13, 3, 5.00000000000000000000e-01) (0, 3, 0.00000000000000000000e+00) 
connections (connected_to_neuron, weight)=(0, 1.95839539170265197754e-01) (1, -5.04061222076416015625e-01) (2, 1.63885071873664855957e-01) (3, 3.62530708312988281250e-01) (4, -4.48805630207061767578e-01) (5, 8.12002643942832946777e-02) (6, 3.10340076684951782227e-01) (7, -6.50056242942810058594e-01) (8, 1.55925318598747253418e-01) (9, 1.98702335357666015625e-01) (10, -7.07735836505889892578e-01) (11, 1.46871373057365417480e-01) (12, 3.37251901626586914062e-01) (13, -7.86731421947479248047e-01) (14, 4.23014104366302490234e-01) (15, 4.60557073354721069336e-01) (16, -4.07638728618621826172e-01) (17, -6.71988576650619506836e-02) (18, 2.95201152563095092773e-01) (19, -4.68908160924911499023e-01) (20, -6.06262125074863433838e-02) (21, 3.68028551340103149414e-01) (22, -4.55019563436508178711e-01) (23, 3.19682136178016662598e-02) (24, 4.29823428392410278320e-01) (25, -6.31518661975860595703e-01) (26, 2.70109772682189941406e-01) (27, 2.85981148481369018555e-01) (28, -7.49420583248138427734e-01) (29, 4.22353714704513549805e-01) (30, 4.19058173894882202148e-01) (31, -5.01264214515686035156e-01) (32, -2.96924784779548645020e-02) (33, 3.04198235273361206055e-01) (34, -4.42282199859619140625e-01) (35, 7.21227526664733886719e-02) (36, 3.94262760877609252930e-01) (37, -3.79898041486740112305e-01) (38, -3.63025180995464324951e-02) (39, 3.55492055416107177734e-01) (40, -5.46439886093139648438e-01) (41, 5.08728064596652984619e-02) (42, 2.66388952732086181641e-01) (43, -6.81933581829071044922e-01) (44, 3.54460388422012329102e-01) (45, 3.06956231594085693359e-01) (46, -4.64894235134124755859e-01) (47, 1.38941869139671325684e-01) (48, 3.94579023122787475586e-01) (49, -3.69076013565063476562e-01) (50, 2.54788715392351150513e-03) (51, 3.58221888542175292969e-01) (52, -3.06828230619430541992e-01) (53, 6.00252784788608551025e-02) (54, 2.48204275965690612793e-01) (55, -5.95523595809936523438e-01) (56, 2.70614176988601684570e-02) (57, 2.15292334556579589844e-01) (58, -6.37450098991394042969e-01) (59, 3.50686132907867431641e-01) (60, 2.05294370651245117188e-01) (61, -4.26178514957427978516e-01) (62, 1.99978396296501159668e-01) (63, 2.38228470087051391602e-01) (64, -4.13022577762603759766e-01) (65, 2.16151013970375061035e-01) (66, 3.69350612163543701172e-01) (67, -5.03574490547180175781e-01) (68, 6.10753111541271209717e-02) (69, 1.86876624822616577148e-01) (70, -6.34819030761718750000e-01) (71, 1.38655737042427062988e-01) (72, 2.45934844017028808594e-01) (73, -6.29872620105743408203e-01) (74, 4.10487234592437744141e-01) (75, -1.45457816123962402344e+00) (0, 2.40934610366821289062e-01) (1, 1.92121028900146484375e-01) (2, 4.08188909292221069336e-01) (3, 1.44471481442451477051e-01) (4, 1.60685050487518310547e+00) (5, -3.94199222326278686523e-01) (6, 1.07485443353652954102e-01) (7, 1.57009494304656982422e+00) (8, -4.80345219373703002930e-01) (9, 1.45731613039970397949e-01) (10, 1.73109889030456542969e+00) (11, -6.56805410981178283691e-02) (12, 1.75554782152175903320e-01) (13, 3.27855914831161499023e-01) (14, 4.47011739015579223633e-01) (15, 2.17893764376640319824e-01) (16, 6.19018614292144775391e-01) (17, -5.66774964332580566406e-01) (18, 8.26355516910552978516e-02) (19, 7.70626723766326904297e-01) (20, -4.60432559251785278320e-01) (21, 7.39188343286514282227e-02) (22, 7.76940822601318359375e-01) (23, -5.67058205604553222656e-01) (24, 9.66395288705825805664e-02) (25, 9.16427373886108398438e-01) (26, -4.61463838815689086914e-01) (27, 2.03998476266860961914e-01) (28, 3.86282384395599365234e-01) (29, 7.84787256270647048950e-03) (30, 2.47117161750793457031e-01) (31, 4.01598453521728515625e-01) (32, -4.62355822324752807617e-01) (33, 3.74993719160556793213e-02) (34, 7.56609737873077392578e-01) (35, -3.21675300598144531250e-01) (36, -6.40328787267208099365e-03) (37, 5.35471260547637939453e-01) (38, -1.28739035129547119141e+00) (39, 1.57460778951644897461e-01) (40, 3.93491446971893310547e-01) (41, -4.26640480756759643555e-01) (42, 5.82916885614395141602e-02) (43, 2.22367122769355773926e-01) (44, 6.52807876467704772949e-02) (45, 2.24383249878883361816e-01) (46, 4.33919250965118408203e-01) (47, -5.14936864376068115234e-01) (48, 7.25681707262992858887e-03) (49, 7.22139835357666015625e-01) (50, -3.08204948902130126953e-01) (51, 1.33454144001007080078e-01) (52, 8.60774934291839599609e-01) (53, -3.44659447669982910156e-01) (54, 2.06387653946876525879e-01) (55, 3.02545845508575439453e-01) (56, -4.21806365251541137695e-01) (57, 1.01921789348125457764e-01) (58, 3.19566071033477783203e-01) (59, 1.15548893809318542480e-02) (60, 1.21867433190345764160e-01) (61, 5.64742207527160644531e-01) (62, 1.07783392071723937988e-01) (63, 1.38927415013313293457e-01) (64, 1.40723252296447753906e+00) (65, -4.04263108968734741211e-01) (66, 2.47408807277679443359e-01) (67, 1.45416498184204101562e+00) (68, -3.52033585309982299805e-01) (69, 2.02507108449935913086e-01) (70, 7.42981314659118652344e-01) (71, -4.16274182498455047607e-03) (72, 9.60265174508094787598e-02) (73, 1.59729361534118652344e-01) (74, 2.53524571657180786133e-01) (75, -1.44748914241790771484e+00) (0, 3.06818693876266479492e-01) (1, 6.10379636287689208984e-01) (2, -7.04458892345428466797e-01) (3, 3.86206448078155517578e-01) (4, 2.97701954841613769531e-01) (5, -7.06411480903625488281e-01) (6, 4.76793199777603149414e-01) (7, 2.35731750726699829102e-01) (8, -7.21030950546264648438e-01) (9, 1.99053823947906494141e-01) (10, 2.51531481742858886719e-01) (11, -6.33037507534027099609e-01) (12, 3.67062509059906005859e-01) (13, 1.97059065103530883789e-01) (14, -1.16720104217529296875e+00) (15, 3.65391194820404052734e-01) (16, 3.82693856954574584961e-01) (17, -5.99267542362213134766e-01) (18, 2.34417498111724853516e-01) (19, 2.20974177122116088867e-01) (20, -4.70825403928756713867e-01) (21, 8.90806317329406738281e-04) (22, 2.47946456074714660645e-01) (23, -4.71969455480575561523e-01) (24, 3.49503457546234130859e-01) (25, 2.60092437267303466797e-01) (26, -5.13192951679229736328e-01) (27, 5.53943097591400146484e-01) (28, 2.86185711622238159180e-01) (29, -6.20338737964630126953e-01) (30, 4.84795987606048583984e-01) (31, 4.51105803251266479492e-01) (32, -6.76145434379577636719e-01) (33, 3.07770967483520507812e-01) (34, 2.51789897680282592773e-01) (35, -4.15859669446945190430e-01) (36, -9.67909842729568481445e-02) (37, 1.57820716500282287598e-01) (38, -3.79002720117568969727e-01) (39, 3.73888134956359863281e-01) (40, 2.96224296092987060547e-01) (41, -5.23279786109924316406e-01) (42, 3.81817400455474853516e-01) (43, 3.45996260643005371094e-01) (44, -7.18063712120056152344e-01) (45, 3.46015274524688720703e-01) (46, 2.95756459236145019531e-01) (47, -5.97350358963012695312e-01) (48, 4.28070843219757080078e-01) (49, 3.93688261508941650391e-01) (50, -3.63242655992507934570e-01) (51, 1.05664044618606567383e-01) (52, 3.34285020828247070312e-01) (53, -4.55891579389572143555e-01) (54, 4.13905829191207885742e-01) (55, 2.44315594434738159180e-01) (56, -4.74672049283981323242e-01) (57, 5.19014477729797363281e-01) (58, 2.23435908555984497070e-01) (59, -6.09342992305755615234e-01) (60, 4.02445495128631591797e-01) (61, 6.27083063125610351562e-01) (62, -6.67351186275482177734e-01) (63, 4.58707481622695922852e-01) (64, 4.08352285623550415039e-01) (65, -6.09582304954528808594e-01) (66, 3.69231075048446655273e-01) (67, 2.45204150676727294922e-01) (68, -5.60806155204772949219e-01) (69, 3.85595381259918212891e-01) (70, 3.15649509429931640625e-01) (71, -6.36120617389678955078e-01) (72, 4.21673357486724853516e-01) (73, 3.31039816141128540039e-01) (74, -1.24709355831146240234e+00) (75, -2.32302308082580566406e+00) (0, 5.46130537986755371094e-01) (1, 2.22688794136047363281e-01) (2, -8.08162868022918701172e-01) (3, 4.35070425271987915039e-01) (4, 2.97102201730012893677e-02) (5, -7.86037147045135498047e-01) (6, 4.62502479553222656250e-01) (7, -3.48794683814048767090e-02) (8, -5.38078367710113525391e-01) (9, 4.17146652936935424805e-01) (10, 1.05613972991704940796e-02) (11, -6.65600717067718505859e-01) (12, 7.21893846988677978516e-01) (13, 4.42298650741577148438e-02) (14, -1.45657980442047119141e+00) (15, 3.85851562023162841797e-01) (16, 1.81820750236511230469e-01) (17, -7.71460771560668945312e-01) (18, 5.03710687160491943359e-01) (19, 5.99139230325818061829e-03) (20, -6.83120191097259521484e-01) (21, 3.65124166011810302734e-01) (22, 5.68477027118206024170e-02) (23, -3.89294981956481933594e-01) (24, 3.93524616956710815430e-01) (25, -2.63775084167718887329e-02) (26, 5.84363043308258056641e-01) (27, 6.57538354396820068359e-01) (28, 1.05787552893161773682e-01) (29, -9.65081393718719482422e-01) (30, 5.34533262252807617188e-01) (31, 1.94442600011825561523e-01) (32, -6.42248094081878662109e-01) (33, 3.84990632534027099609e-01) (34, 1.18322342634201049805e-01) (35, -6.27510845661163330078e-01) (36, 4.28136914968490600586e-01) (37, 3.06961704045534133911e-02) (38, -3.40934216976165771484e-01) (39, 3.59752118587493896484e-01) (40, 4.90061789751052856445e-02) (41, 1.09827768802642822266e+00) (42, 5.91092228889465332031e-01) (43, 1.93106736987829208374e-02) (44, -4.96516764163970947266e-01) (45, 4.81759339570999145508e-01) (46, 2.16955497860908508301e-01) (47, -7.85595238208770751953e-01) (48, 5.38588047027587890625e-01) (49, 9.80374887585639953613e-02) (50, -5.69551229476928710938e-01) (51, 3.64850163459777832031e-01) (52, 1.73961874097585678101e-02) (53, -5.50789475440979003906e-01) (54, 3.72758835554122924805e-01) (55, 6.94136992096900939941e-02) (56, 2.41591975092887878418e-01) (57, 5.85331499576568603516e-01) (58, -2.90145594626665115356e-02) (59, -1.29309642314910888672e+00) (60, 3.97362917661666870117e-01) (61, 1.23283535242080688477e-01) (62, -8.49086642265319824219e-01) (63, 3.76286745071411132812e-01) (64, 9.35376361012458801270e-02) (65, -8.21462869644165039062e-01) (66, 4.62821245193481445312e-01) (67, 6.55279383063316345215e-02) (68, -7.12403476238250732422e-01) (69, 3.98909389972686767578e-01) (70, 9.23673287034034729004e-02) (71, -7.72727549076080322266e-01) (72, 4.83132719993591308594e-01) (73, 2.32665196061134338379e-01) (74, -1.35694718360900878906e+00) (75, -5.36919355392456054688e+00) (0, 1.67019680142402648926e-01) (1, -5.20715892314910888672e-01) (2, 3.24386447668075561523e-01) (3, 1.54773131012916564941e-01) (4, -3.47772359848022460938e-01) (5, 2.86725699901580810547e-01) (6, 1.72271206974983215332e-01) (7, -4.53810513019561767578e-01) (8, 3.51251840591430664062e-01) (9, 2.03522935509681701660e-01) (10, -3.08587253093719482422e-01) (11, 3.89895319938659667969e-01) (12, 1.97562724351882934570e-01) (13, -6.32789611816406250000e-01) (14, 7.30837881565093994141e-01) (15, 2.35255524516105651855e-01) (16, -4.35909926891326904297e-01) (17, 3.72271895408630371094e-01) (18, 2.56610810756683349609e-01) (19, -3.60372662544250488281e-01) (20, 3.61433714628219604492e-01) (21, 1.68597266077995300293e-01) (22, -4.09281343221664428711e-01) (23, 2.83522665500640869141e-01) (24, 2.16671988368034362793e-01) (25, -4.41804647445678710938e-01) (26, 3.38114321231842041016e-01) (27, 8.72653499245643615723e-02) (28, -4.76219296455383300781e-01) (29, 2.12049499154090881348e-01) (30, 1.18345610797405242920e-01) (31, -3.94263684749603271484e-01) (32, 3.55260431766510009766e-01) (33, 1.90499708056449890137e-01) (34, -3.03639411926269531250e-01) (35, 1.34267017245292663574e-01) (36, 1.95929020643234252930e-01) (37, -4.02049601078033447266e-01) (38, 3.44202786684036254883e-01) (39, 2.63071984052658081055e-01) (40, -4.65232193470001220703e-01) (41, 2.96000123023986816406e-01) (42, 2.41112127900123596191e-01) (43, -3.61646771430969238281e-01) (44, 2.75179028511047363281e-01) (45, 1.19174905121326446533e-01) (46, -4.15922701358795166016e-01) (47, 4.30726945400238037109e-01) (48, 2.15780064463615417480e-01) (49, -4.28817451000213623047e-01) (50, 3.57313960790634155273e-01) (51, 1.20651833713054656982e-01) (52, -3.38404297828674316406e-01) (53, 4.33064371347427368164e-01) (54, 1.44763097167015075684e-01) (55, -3.95579069852828979492e-01) (56, 4.54944640398025512695e-01) (57, 2.09824562072753906250e-01) (58, -3.89036715030670166016e-01) (59, 3.96723031997680664062e-01) (60, 2.23349481821060180664e-01) (61, -4.57894474267959594727e-01) (62, 7.89644360542297363281e-01) (63, 8.75646248459815979004e-02) (64, -4.39094901084899902344e-01) (65, 3.91928911209106445312e-01) (66, 1.05052255094051361084e-01) (67, -3.22889745235443115234e-01) (68, 4.64289665222167968750e-01) (69, 1.66624933481216430664e-01) (70, -3.38572263717651367188e-01) (71, 4.57554608583450317383e-01) (72, 1.76948249340057373047e-01) (73, -5.47909975051879882812e-01) (74, 7.75352180004119873047e-01) (75, 1.30085244774818420410e-01) (0, -1.89186584949493408203e+00) (1, 7.48788714408874511719e-01) (2, 4.77716177701950073242e-01) (3, -1.91798150539398193359e+00) (4, 1.04670011997222900391e+00) (5, 1.22207358479499816895e-01) (6, -1.84259998798370361328e+00) (7, 9.98179852962493896484e-01) (8, -2.19197571277618408203e-01) (9, -2.00894260406494140625e+00) (10, 1.08763265609741210938e+00) (11, 1.22767776250839233398e-01) (12, -3.23709654808044433594e+00) (13, 1.09811305999755859375e+00) (14, 5.00466346740722656250e-01) (15, -1.96546256542205810547e+00) (16, 1.12053310871124267578e+00) (17, 3.25159817934036254883e-01) (18, -1.89795053005218505859e+00) (19, 9.84474718570709228516e-01) (20, -2.81352430582046508789e-01) (21, -1.86231350898742675781e+00) (22, 1.43756496906280517578e+00) (23, -2.30280160903930664062e-01) (24, -2.00203227996826171875e+00) (25, 1.23824822902679443359e+00) (26, -1.05654962360858917236e-01) (27, -1.91572499275207519531e+00) (28, 1.16858780384063720703e+00) (29, 2.98227891325950622559e-02) (30, -1.89572048187255859375e+00) (31, 9.81202602386474609375e-01) (32, -3.78231555223464965820e-02) (33, -1.77465486526489257812e+00) (34, 1.23636460304260253906e+00) (35, -3.06974202394485473633e-01) (36, -1.79476594924926757812e+00) (37, 1.31356823444366455078e+00) (38, -8.64248424768447875977e-02) (39, -1.83704459667205810547e+00) (40, 1.16570127010345458984e+00) (41, -1.73441663384437561035e-01) (42, -1.94921267032623291016e+00) (43, 1.11825585365295410156e+00) (44, 5.25792352855205535889e-02) (45, -1.99611485004425048828e+00) (46, 1.05218100547790527344e+00) (47, 2.63220012187957763672e-01) (48, -1.64986062049865722656e+00) (49, 1.15184688568115234375e+00) (50, -8.62164199352264404297e-01) (51, -1.49716508388519287109e+00) (52, 1.08019995689392089844e+00) (53, -6.86592519283294677734e-01) (54, -1.88804161548614501953e+00) (55, 1.22652852535247802734e+00) (56, -3.57280850410461425781e-01) (57, -2.03753972053527832031e+00) (58, 1.15862476825714111328e+00) (59, 1.64386466145515441895e-01) (60, -1.86961400508880615234e+00) (61, 9.46755588054656982422e-01) (62, 5.24703919887542724609e-01) (63, -1.77729511260986328125e+00) (64, 9.88307535648345947266e-01) (65, 8.42676013708114624023e-02) (66, -1.67090821266174316406e+00) (67, 1.04132032394409179688e+00) (68, -6.79445147514343261719e-01) (69, -1.90740811824798583984e+00) (70, 1.01513063907623291016e+00) (71, 1.94721683859825134277e-01) (72, -1.89878797531127929688e+00) (73, 1.11419820785522460938e+00) (74, 5.53792476654052734375e-01) (75, 3.59555387496948242188e+00) (0, 2.02517077326774597168e-01) (1, 1.46701562404632568359e+00) (2, -3.69210600852966308594e-01) (3, 6.12811967730522155762e-02) (4, 1.19715905189514160156e+00) (5, -2.96629607677459716797e-01) (6, 2.81176678836345672607e-02) (7, 1.30223369598388671875e+00) (8, -3.07170718908309936523e-01) (9, 1.31662487983703613281e-01) (10, 7.90455996990203857422e-01) (11, -5.74505865573883056641e-01) (12, -3.96487176418304443359e-01) (13, 1.20774602890014648438e+00) (14, -1.57797262072563171387e-01) (15, 2.31904134154319763184e-01) (16, 1.48675358295440673828e+00) (17, -2.52205580472946166992e-01) (18, 1.39784753322601318359e-01) (19, 1.72413456439971923828e+00) (20, -1.99062049388885498047e-01) (21, 1.08996912837028503418e-01) (22, 1.01445019245147705078e+00) (23, -1.74084782600402832031e-01) (24, 1.51102244853973388672e-01) (25, 8.51290822029113769531e-01) (26, -2.05345302820205688477e-01) (27, -1.85751885175704956055e-01) (28, 4.56561625003814697266e-01) (29, -2.44645565748214721680e-01) (30, 1.84257268905639648438e-01) (31, 5.48669576644897460938e-01) (32, -1.82168751955032348633e-01) (33, 2.27723166346549987793e-01) (34, 5.94765663146972656250e-01) (35, -1.16368973255157470703e+00) (36, 2.49816969037055969238e-01) (37, 5.41818618774414062500e-01) (38, -9.63815212249755859375e-01) (39, 1.44149005413055419922e-01) (40, 5.01145005226135253906e-01) (41, -1.01739919185638427734e+00) (42, -5.87411373853683471680e-02) (43, 4.20617640018463134766e-01) (44, -8.65925624966621398926e-02) (45, 2.24088802933692932129e-01) (46, 1.53817141056060791016e+00) (47, -2.55287498235702514648e-01) (48, 1.18186704814434051514e-01) (49, 1.53413200378417968750e+00) (50, -1.59924149513244628906e-01) (51, 2.51007109880447387695e-01) (52, 5.94217419624328613281e-01) (53, -8.94418835639953613281e-01) (54, 6.81127905845642089844e-02) (55, 5.76662003993988037109e-01) (56, -8.17904099822044372559e-02) (57, -2.45136842131614685059e-01) (58, 2.32879102230072021484e-01) (59, -1.20845817029476165771e-01) (60, 2.20149960368871688843e-02) (61, 8.31136226654052734375e-01) (62, -6.31806790828704833984e-01) (63, 1.96681603789329528809e-01) (64, 1.88760709762573242188e+00) (65, -4.97207462787628173828e-01) (66, 1.78643584251403808594e-01) (67, 2.10372042655944824219e+00) (68, -3.45532655715942382812e-01) (69, 9.58627462387084960938e-02) (70, 5.56226551532745361328e-01) (71, -4.79966521263122558594e-01) (72, -6.32426500320434570312e-01) (73, 3.25244814157485961914e-01) (74, -4.22018587589263916016e-01) (75, 6.05654835700988769531e-01) (0, 1.49600595235824584961e-01) (1, 3.35543775558471679688e+00) (2, -3.75263452529907226562e-01) (3, 1.64054065942764282227e-01) (4, 6.25385046005249023438e-01) (5, -9.92980778217315673828e-01) (6, 1.28784626722335815430e-01) (7, 6.03024899959564208984e-01) (8, -1.02751100063323974609e+00) (9, 3.31050008535385131836e-02) (10, 6.22065782546997070312e-01) (11, -4.38848972320556640625e-01) (12, -3.50925654172897338867e-01) (13, 9.46273267269134521484e-01) (14, -2.25736454129219055176e-01) (15, 1.16001471877098083496e-01) (16, 7.60128319263458251953e-01) (17, -2.42731451988220214844e-01) (18, 2.78027743101119995117e-01) (19, 9.32873010635375976562e-01) (20, -2.29863852262496948242e-01) (21, 2.38900020718574523926e-01) (22, 4.98213499784469604492e-01) (23, -2.69882500171661376953e-01) (24, 1.03730615228414535522e-02) (25, 1.33942091464996337891e+00) (26, -3.01893740892410278320e-01) (27, -3.34322035312652587891e-01) (28, 7.68740952014923095703e-01) (29, -1.95038601756095886230e-01) (30, 2.73132443428039550781e-01) (31, 8.14874291419982910156e-01) (32, -2.42006003856658935547e-01) (33, 2.81058013439178466797e-01) (34, 7.13303446769714355469e-01) (35, -1.10121440887451171875e+00) (36, 2.62359499931335449219e-01) (37, 6.06669545173645019531e-01) (38, -1.06434583663940429688e+00) (39, 1.12870015203952789307e-01) (40, 6.65716052055358886719e-01) (41, -3.24200212955474853516e-01) (42, -3.31752181053161621094e-01) (43, 2.51490056514739990234e-01) (44, -6.69646039605140686035e-02) (45, 2.19833806157112121582e-01) (46, 7.23121345043182373047e-01) (47, -3.11388671398162841797e-01) (48, 1.83057844638824462891e-01) (49, 7.58019566535949707031e-01) (50, -2.19273298978805541992e-01) (51, 1.48142561316490173340e-01) (52, 1.42402768135070800781e+00) (53, -1.82245090603828430176e-01) (54, 1.32065132260322570801e-01) (55, 5.83643496036529541016e-01) (56, -4.01584863662719726562e-01) (57, -1.73607364296913146973e-01) (58, 2.53616601228713989258e-01) (59, -4.88158985972404479980e-02) (60, 2.20392808318138122559e-01) (61, 6.88332438468933105469e-01) (62, -5.07880926132202148438e-01) (63, 1.89580127596855163574e-01) (64, 1.01825726032257080078e+00) (65, -4.11342024803161621094e-01) (66, -3.37952636182308197021e-02) (67, 9.67286348342895507812e-01) (68, -4.81501281261444091797e-01) (69, -9.40636470913887023926e-02) (70, 9.33299422264099121094e-01) (71, -4.68016862869262695312e-01) (72, -1.70757159590721130371e-01) (73, 6.27272009849548339844e-01) (74, 1.79548382759094238281e-01) (75, 4.03182178735733032227e-01) (0, 2.56403535604476928711e-01) (1, -5.05956530570983886719e-01) (2, 4.84651595354080200195e-01) (3, 1.28911584615707397461e-01) (4, -3.47218871116638183594e-01) (5, 2.84656316041946411133e-01) (6, 1.78421765565872192383e-01) (7, -3.42592418193817138672e-01) (8, 2.51128762960433959961e-01) (9, 1.58988133072853088379e-01) (10, -3.76936733722686767578e-01) (11, 5.72446584701538085938e-01) (12, -5.17590530216693878174e-02) (13, -7.65943646430969238281e-01) (14, 4.57017689943313598633e-01) (15, 3.20036739110946655273e-01) (16, -5.66236019134521484375e-01) (17, 2.54848182201385498047e-01) (18, 2.12267026305198669434e-01) (19, -2.97230035066604614258e-01) (20, 3.76859784126281738281e-01) (21, 1.72435596585273742676e-01) (22, -3.68735939264297485352e-01) (23, 2.70604401826858520508e-01) (24, 2.79964029788970947266e-01) (25, -3.41197758913040161133e-01) (26, 3.80682855844497680664e-01) (27, 2.39894226193428039551e-01) (28, -5.65641283988952636719e-01) (29, 5.44726490974426269531e-01) (30, 2.94433116912841796875e-01) (31, -4.24164623022079467773e-01) (32, 5.56503772735595703125e-01) (33, 3.58231604099273681641e-01) (34, -4.64081227779388427734e-01) (35, 1.51483908295631408691e-01) (36, 2.55408346652984619141e-01) (37, -3.62496525049209594727e-01) (38, 2.51469701528549194336e-01) (39, 1.68284058570861816406e-01) (40, -4.75849866867065429688e-01) (41, 2.07538396120071411133e-01) (42, 2.68043190240859985352e-01) (43, -5.31949460506439208984e-01) (44, 5.13085305690765380859e-01) (45, 2.94797390699386596680e-01) (46, -6.00513339042663574219e-01) (47, 4.03309941291809082031e-01) (48, 3.09494972229003906250e-01) (49, -4.34803903102874755859e-01) (50, 2.43830949068069458008e-01) (51, 2.69457936286926269531e-01) (52, -3.62478703260421752930e-01) (53, 3.65718424320220947266e-01) (54, 8.43754261732101440430e-02) (55, -3.65293532609939575195e-01) (56, 4.56508457660675048828e-01) (57, 2.56326824426651000977e-01) (58, -4.89734917879104614258e-01) (59, 5.27316451072692871094e-01) (60, 1.69365689158439636230e-01) (61, -7.31015384197235107422e-01) (62, 9.61199998855590820312e-01) (63, 2.62683957815170288086e-01) (64, -5.60085296630859375000e-01) (65, 4.71526205539703369141e-01) (66, 1.54040709137916564941e-01) (67, -4.25915062427520751953e-01) (68, 2.88579881191253662109e-01) (69, 1.95914581418037414551e-01) (70, -3.89769017696380615234e-01) (71, 6.53330743312835693359e-01) (72, 7.19102239236235618591e-03) (73, -7.14340031147003173828e-01) (74, 5.84691941738128662109e-01) (75, 2.05422635190188884735e-03) (0, 4.71742838621139526367e-01) (1, 1.59359887242317199707e-01) (2, -5.66202163696289062500e-01) (3, 5.93576252460479736328e-01) (4, 2.14811101555824279785e-01) (5, -5.02075135707855224609e-01) (6, 6.92346036434173583984e-01) (7, 8.94755944609642028809e-02) (8, -5.54091989994049072266e-01) (9, 7.29680120944976806641e-01) (10, 2.14805454015731811523e-01) (11, -6.61106646060943603516e-01) (12, 7.67391443252563476562e-01) (13, 1.57500818371772766113e-01) (14, -1.27928316593170166016e+00) (15, 4.30015563964843750000e-01) (16, 1.82930126786231994629e-01) (17, -2.02877819538116455078e-01) (18, 4.27763909101486206055e-01) (19, 1.52272105216979980469e-01) (20, 6.12070500850677490234e-01) (21, 3.82270514965057373047e-01) (22, 2.12668627500534057617e-01) (23, 1.30628585815429687500e+00) (24, 5.88976979255676269531e-01) (25, 1.63539230823516845703e-01) (26, 1.47989404201507568359e+00) (27, 8.08022439479827880859e-01) (28, 1.11965000629425048828e-01) (29, -6.93298339843750000000e-01) (30, 4.72715944051742553711e-01) (31, 2.46538504958152770996e-01) (32, -1.65858507156372070312e-01) (33, 4.54860687255859375000e-01) (34, 2.33770888298749923706e-02) (35, 1.24186193943023681641e+00) (36, 3.26528847217559814453e-01) (37, 1.77954643964767456055e-01) (38, 1.30980539321899414062e+00) (39, 7.39489734172821044922e-01) (40, 1.64832267910242080688e-03) (41, 7.80011355876922607422e-01) (42, 6.92425251007080078125e-01) (43, 8.71840193867683410645e-02) (44, -7.04702377319335937500e-01) (45, 7.13320970535278320312e-01) (46, 1.78036168217658996582e-01) (47, -5.74999414384365081787e-02) (48, 7.10837543010711669922e-01) (49, 1.41228556632995605469e-01) (50, 6.11219978332519531250e+00) (51, 3.32670271396636962891e-01) (52, -1.05792798101902008057e-01) (53, 2.11228179931640625000e+00) (54, 7.61983454227447509766e-01) (55, 5.48925995826721191406e-02) (56, 5.19363641738891601562e-01) (57, 8.10020804405212402344e-01) (58, 1.96025520563125610352e-01) (59, -6.31101846694946289062e-01) (60, 7.48885929584503173828e-01) (61, 1.31552204489707946777e-01) (62, -6.48078620433807373047e-01) (63, 5.82164347171783447266e-01) (64, 1.76077678799629211426e-01) (65, -6.46233856678009033203e-01) (66, 7.15125024318695068359e-01) (67, 1.63356900215148925781e-01) (68, -6.83534324169158935547e-01) (69, 7.05391585826873779297e-01) (70, 2.01529040932655334473e-01) (71, -5.59139549732208251953e-01) (72, 6.87565684318542480469e-01) (73, 2.21301928162574768066e-01) (74, -7.96990275382995605469e-01) (75, -6.74458546563982963562e-03) (0, -8.63083720207214355469e-01) (1, 8.68332237005233764648e-02) (2, 5.03196895122528076172e-01) (3, -9.14316177368164062500e-01) (4, 2.19157621264457702637e-01) (5, 4.46652323007583618164e-01) (6, -8.52797687053680419922e-01) (7, 2.41029337048530578613e-01) (8, 2.86030501127243041992e-01) (9, -8.93032550811767578125e-01) (10, 2.56313025951385498047e-01) (11, 4.73692744970321655273e-01) (12, -1.97667181491851806641e+00) (13, 1.96080014109611511230e-01) (14, 4.19159501791000366211e-01) (15, -4.27724659442901611328e-01) (16, 2.69153237342834472656e-01) (17, 3.72798085212707519531e-01) (18, -3.22556614875793457031e-01) (19, 5.62019824981689453125e-01) (20, 3.54201883077621459961e-01) (21, -3.60236883163452148438e-01) (22, 7.94615507125854492188e-01) (23, -3.41868698596954345703e-02) (24, -8.08971464633941650391e-01) (25, 5.78097820281982421875e-01) (26, 2.61686891317367553711e-01) (27, -1.22054851055145263672e+00) (28, 5.16329526901245117188e-01) (29, 4.09622222185134887695e-01) (30, -2.64437437057495117188e-01) (31, 2.76082992553710937500e-01) (32, 3.06614011526107788086e-01) (33, -3.04501891136169433594e-01) (34, 6.72875702381134033203e-01) (35, 2.93466091156005859375e-01) (36, -3.32247257232666015625e-01) (37, 6.92470669746398925781e-01) (38, -3.66134494543075561523e-01) (39, -3.20614457130432128906e-01) (40, 6.65684342384338378906e-01) (41, -1.88185408711433410645e-01) (42, -1.26968836784362792969e+00) (43, 2.69732207059860229492e-01) (44, 2.94178396463394165039e-01) (45, -2.74900138378143310547e-01) (46, 6.47956207394599914551e-02) (47, 3.88904720544815063477e-01) (48, -3.20512086153030395508e-01) (49, 3.38249802589416503906e-01) (50, 3.62264156341552734375e-01) (51, -3.42003524303436279297e-01) (52, 5.29942870140075683594e-01) (53, 1.93131357431411743164e-01) (54, -3.52923572063446044922e-01) (55, 6.34945869445800781250e-01) (56, 3.41109216213226318359e-01) (57, -1.56971371173858642578e+00) (58, 2.38948285579681396484e-01) (59, 4.19880062341690063477e-01) (60, -5.61219692230224609375e-01) (61, 3.37581560015678405762e-02) (62, 4.20045047998428344727e-01) (63, -2.95748353004455566406e-01) (64, 3.15030097961425781250e-01) (65, 4.77387696504592895508e-01) (66, -4.14519548416137695312e-01) (67, 2.06586807966232299805e-01) (68, 3.17850321531295776367e-01) (69, -5.60726404190063476562e-01) (70, 2.80024349689483642578e-01) (71, 4.22297626733779907227e-01) (72, -2.03716945648193359375e+00) (73, 1.57813698053359985352e-01) (74, 3.96839797496795654297e-01) (75, 1.28798902034759521484e+00) (0, 4.25939291715621948242e-01) (1, -5.45609474182128906250e-01) (2, 1.95011898875236511230e-01) (3, 2.27190494537353515625e-01) (4, -3.72889935970306396484e-01) (5, -3.26809823513031005859e-01) (6, 2.31224983930587768555e-01) (7, -3.55194598436355590820e-01) (8, 3.36646176874637603760e-02) (9, 2.67767846584320068359e-01) (10, -4.13838595151901245117e-01) (11, -6.79104924201965332031e-02) (12, 2.38105416297912597656e-01) (13, -5.19515156745910644531e-01) (14, 1.55851766467094421387e-01) (15, 3.39966148138046264648e-01) (16, -2.65795499086380004883e-01) (17, -5.00582575798034667969e-01) (18, 4.80978518724441528320e-01) (19, -3.23872059583663940430e-01) (20, -2.12453222274780273438e+00) (21, 4.73465532064437866211e-01) (22, -2.29976773262023925781e-01) (23, -1.77410805225372314453e+00) (24, 3.56816321611404418945e-01) (25, -2.48150229454040527344e-01) (26, -4.05683457851409912109e-01) (27, 2.32843130826950073242e-01) (28, -3.63859117031097412109e-01) (29, 4.13739532232284545898e-02) (30, 4.80663865804672241211e-01) (31, -4.15476262569427490234e-01) (32, -7.59640514850616455078e-01) (33, 4.62522774934768676758e-01) (34, -3.95598769187927246094e-01) (35, -2.06756687164306640625e+00) (36, 3.59671324491500854492e-01) (37, -3.02099823951721191406e-01) (38, -9.53049540519714355469e-01) (39, 5.14717221260070800781e-01) (40, -2.15688228607177734375e-01) (41, -3.78583788871765136719e-01) (42, 2.15559571981430053711e-01) (43, -4.26570087671279907227e-01) (44, -4.33516688644886016846e-02) (45, 3.76435995101928710938e-01) (46, -4.01621758937835693359e-01) (47, -1.29448398947715759277e-01) (48, 4.82081651687622070312e-01) (49, -2.05220222473144531250e-01) (50, -8.28113436698913574219e-01) (51, 3.47508698701858520508e-01) (52, -2.96579718589782714844e-01) (53, -8.51945757865905761719e-01) (54, 2.88958311080932617188e-01) (55, -2.41413071751594543457e-01) (56, -2.27093040943145751953e-01) (57, 3.05488348007202148438e-01) (58, -5.40010273456573486328e-01) (59, 1.13834932446479797363e-01) (60, 2.11530119180679321289e-01) (61, -6.01350903511047363281e-01) (62, 2.48759016394615173340e-01) (63, 2.36776262521743774414e-01) (64, -2.61235386133193969727e-01) (65, 7.29635134339332580566e-02) (66, 1.59168824553489685059e-01) (67, -3.98022770881652832031e-01) (68, -7.47360009700059890747e-03) (69, 1.72733202576637268066e-01) (70, -4.01856124401092529297e-01) (71, 2.49584042467176914215e-03) (72, 2.38863706588745117188e-01) (73, -6.27668678760528564453e-01) (74, 1.70368686318397521973e-01) (75, -2.17812895774841308594e+00) (76, -1.76751351356506347656e+00) (77, -1.61308765411376953125e-01) (78, 1.59989869594573974609e+00) (79, 2.04919528961181640625e+00) (80, -6.95235252380371093750e-01) (81, -1.15588223934173583984e+00) (82, -2.29796782135963439941e-01) (83, -1.81403234601020812988e-01) (84, -5.55981934070587158203e-01) (85, 1.39248466491699218750e+00) (86, -2.68639683723449707031e-01) (87, -1.95753622055053710938e+00) (88, -2.77212888002395629883e-01) 
