FANN_FLO_2.1
num_layers=3
learning_rate=0.700000
connection_rate=1.000000
network_type=0
learning_momentum=0.000000
training_algorithm=2
train_error_function=1
train_stop_function=0
cascade_output_change_fraction=0.010000
quickprop_decay=-0.000100
quickprop_mu=1.750000
rprop_increase_factor=1.200000
rprop_decrease_factor=0.500000
rprop_delta_min=0.000000
rprop_delta_max=50.000000
rprop_delta_zero=0.100000
cascade_output_stagnation_epochs=12
cascade_candidate_change_fraction=0.010000
cascade_candidate_stagnation_epochs=12
cascade_max_out_epochs=150
cascade_max_cand_epochs=150
cascade_num_candidate_groups=2
bit_fail_limit=3.49999994039535522461e-01
cascade_candidate_limit=1.00000000000000000000e+03
cascade_weight_multiplier=4.00000005960464477539e-01
cascade_activation_functions_count=10
cascade_activation_functions=3 5 7 8 10 11 14 15 16 17 
cascade_activation_steepnesses_count=4
cascade_activation_steepnesses=2.50000000000000000000e-01 5.00000000000000000000e-01 7.50000000000000000000e-01 1.00000000000000000000e+00 
layer_sizes=76 9 2 
scale_included=1
scale_mean_in=0.433786 0.433929 0.435179 0.435919 0.433954 0.434102 0.435286 0.435810 0.433681 0.434036 0.435370 0.435855 0.433928 0.433984 0.435215 0.435836 0.434205 0.434080 0.435299 0.435693 0.433797 0.433724 0.435288 0.435494 0.434035 0.433925 0.435322 0.435645 0.434104 0.434080 0.435349 0.435853 0.433918 0.433880 0.435123 0.435800 0.433894 0.433956 0.435252 0.435710 0.433962 0.433903 0.435459 0.435601 0.434106 0.433634 0.435055 0.435626 0.434190 0.433788 0.435341 0.435786 0.433888 0.434193 0.435325 0.435968 0.433971 0.434107 0.435063 0.435806 0.433790 0.433898 0.435160 0.435696 0.433860 0.433917 0.435270 0.435902 0.434142 0.433916 0.435335 0.435533 0.433887 0.433980 0.435133 
scale_deviation_in=0.191666 0.191294 0.191173 0.191581 0.191714 0.191454 0.191199 0.191728 0.191692 0.191463 0.191380 0.191662 0.191755 0.191200 0.191247 0.191612 0.191684 0.191316 0.191427 0.191703 0.191773 0.191457 0.191565 0.191680 0.191879 0.191289 0.191264 0.191394 0.191635 0.191243 0.191434 0.191566 0.191656 0.191395 0.191467 0.191812 0.191679 0.191354 0.191275 0.191649 0.191435 0.191109 0.191364 0.191788 0.191672 0.191340 0.191495 0.191908 0.191806 0.191369 0.191411 0.191549 0.191470 0.191071 0.191209 0.191650 0.191628 0.191346 0.191407 0.191938 0.191846 0.191304 0.191315 0.191798 0.191437 0.191040 0.191168 0.191591 0.191705 0.191252 0.191580 0.191761 0.191975 0.191532 0.191387 
scale_new_min_in=0.000000 0.000000 0.000000 0.000000 0.000000 0.000000 0.000000 0.000000 0.000000 0.000000 0.000000 0.000000 0.000000 0.000000 0.000000 0.000000 0.000000 0.000000 0.000000 0.000000 0.000000 0.000000 0.000000 0.000000 0.000000 0.000000 0.000000 0.000000 0.000000 0.000000 0.000000 0.000000 0.000000 0.000000 0.000000 0.000000 0.000000 0.000000 0.000000 0.000000 0.000000 0.000000 0.000000 0.000000 0.000000 0.000000 0.000000 0.000000 0.000000 0.000000 0.000000 0.000000 0.000000 0.000000 0.000000 0.000000 0.000000 0.000000 0.000000 0.000000 0.000000 0.000000 0.000000 0.000000 0.000000 0.000000 0.000000 0.000000 0.000000 0.000000 0.000000 0.000000 0.000000 0.000000 0.000000 
scale_factor_in=0.500000 0.500000 0.500000 0.500000 0.500000 0.500000 0.500000 0.500000 0.500000 0.500000 0.500000 0.500000 0.500000 0.500000 0.500000 0.500000 0.500000 0.500000 0.500000 0.500000 0.500000 0.500000 0.500000 0.500000 0.500000 0.500000 0.500000 0.500000 0.500000 0.500000 0.500000 0.500000 0.500000 0.500000 0.500000 0.500000 0.500000 0.500000 0.500000 0.500000 0.500000 0.500000 0.500000 0.500000 0.500000 0.500000 0.500000 0.500000 0.500000 0.500000 0.500000 0.500000 0.500000 0.500000 0.500000 0.500000 0.500000 0.500000 0.500000 0.500000 0.500000 0.500000 0.500000 0.500000 0.500000 0.500000 0.500000 0.500000 0.500000 0.500000 0.500000 0.500000 0.500000 0.500000 0.500000 
scale_mean_out=0.435746 
scale_deviation_out=0.191792 
scale_new_min_out=0.000000 
scale_factor_out=0.500000 
neurons (num_inputs, activation_function, activation_steepness)=(0, 0, 0.00000000000000000000e+00) (0, 0, 0.00000000000000000000e+00) (0, 0, 0.00000000000000000000e+00) (0, 0, 0.00000000000000000000e+00) (0, 0, 0.00000000000000000000e+00) (0, 0, 0.00000000000000000000e+00) (0, 0, 0.00000000000000000000e+00) (0, 0, 0.00000000000000000000e+00) (0, 0, 0.00000000000000000000e+00) (0, 0, 0.00000000000000000000e+00) (0, 0, 0.00000000000000000000e+00) (0, 0, 0.00000000000000000000e+00) (0, 0, 0.00000000000000000000e+00) (0, 0, 0.00000000000000000000e+00) (0, 0, 0.00000000000000000000e+00) (0, 0, 0.00000000000000000000e+00) (0, 0, 0.00000000000000000000e+00) (0, 0, 0.00000000000000000000e+00) (0, 0, 0.00000000000000000000e+00) (0, 0, 0.00000000000000000000e+00) (0, 0, 0.00000000000000000000e+00) (0, 0, 0.00000000000000000000e+00) (0, 0, 0.00000000000000000000e+00) (0, 0, 0.00000000000000000000e+00) (0, 0, 0.00000000000000000000e+00) (0, 0, 0.00000000000000000000e+00) (0, 0, 0.00000000000000000000e+00) (0, 0, 0.00000000000000000000e+00) (0, 0, 0.00000000000000000000e+00) (0, 0, 0.00000000000000000000e+00) (0, 0, 0.00000000000000000000e+00) (0, 0, 0.00000000000000000000e+00) (0, 0, 0.00000000000000000000e+00) (0, 0, 0.00000000000000000000e+00) (0, 0, 0.00000000000000000000e+00) (0, 0, 0.00000000000000000000e+00) (0, 0, 0.00000000000000000000e+00) (0, 0, 0.00000000000000000000e+00) (0, 0, 0.00000000000000000000e+00) (0, 0, 0.00000000000000000000e+00) (0, 0, 0.00000000000000000000e+00) (0, 0, 0.00000000000000000000e+00) (0, 0, 0.00000000000000000000e+00) (0, 0, 0.00000000000000000000e+00) (0, 0, 0.00000000000000000000e+00) (0, 0, 0.00000000000000000000e+00) (0, 0, 0.00000000000000000000e+00) (0, 0, 0.00000000000000000000e+00) (0, 0, 0.00000000000000000000e+00) (0, 0, 0.00000000000000000000e+00) (0, 0, 0.00000000000000000000e+00) (0, 0, 0.00000000000000000000e+00) (0, 0, 0.00000000000000000000e+00) (0, 0, 0.00000000000000000000e+00) (0, 0, 0.00000000000000000000e+00) (0, 0, 0.00000000000000000000e+00) (0, 0, 0.00000000000000000000e+00) (0, 0, 0.00000000000000000000e+00) (0, 0, 0.00000000000000000000e+00) (0, 0, 0.00000000000000000000e+00) (0, 0, 0.00000000000000000000e+00) (0, 0, 0.00000000000000000000e+00) (0, 0, 0.00000000000000000000e+00) (0, 0, 0.00000000000000000000e+00) (0, 0, 0.00000000000000000000e+00) (0, 0, 0.00000000000000000000e+00) (0, 0, 0.00000000000000000000e+00) (0, 0, 0.00000000000000000000e+00) (0, 0, 0.00000000000000000000e+00) (0, 0, 0.00000000000000000000e+00) (0, 0, 0.00000000000000000000e+00) (0, 0, 0.00000000000000000000e+00) (0, 0, 0.00000000000000000000e+00) (0, 0, 0.00000000000000000000e+00) (0, 0, 0.00000000000000000000e+00) (0, 0, 0.00000000000000000000e+00) (76, 3, 5.00000000000000000000e-01) (76, 3, 5.00000000000000000000e-01) (76, 3, 5.00000000000000000000e-01) (76, 3, 5.00000000000000000000e-01) (76, 3, 5.00000000000000000000e-01) (76, 3, 5.00000000000000000000e-01) (76, 3, 5.00000000000000000000e-01) (76, 3, 5.00000000000000000000e-01) (0, 3, 0.00000000000000000000e+00) (9, 3, 5.00000000000000000000e-01) (0, 3, 0.00000000000000000000e+00) 
connections (connected_to_neuron, weight)=(0, 1.16226363182067871094e+00) (1, -1.71429252624511718750e+00) (2, 9.50694152832031250000e+02) (3, 3.77240777015686035156e-01) (4, 1.17648911476135253906e+00) (5, -5.42980968952178955078e-01) (6, 9.50767456054687500000e+02) (7, 1.37023460865020751953e+00) (8, 1.05314993858337402344e+00) (9, -1.47865474224090576172e-01) (10, 7.01875854492187500000e+02) (11, 4.42752122879028320312e-01) (12, 1.11397826671600341797e+00) (13, -7.62754380702972412109e-01) (14, 9.41688842773437500000e+01) (15, 6.89831018447875976562e+00) (16, 1.17655003070831298828e+00) (17, -8.79804491996765136719e-02) (18, 3.93291015625000000000e+01) (19, 2.05665206909179687500e+00) (20, 6.67634427547454833984e-01) (21, -3.02785813808441162109e-01) (22, 1.67039146423339843750e+01) (23, 6.81915140151977539062e+00) (24, 6.77018105983734130859e-01) (25, 3.42884920537471771240e-02) (26, 3.88219146728515625000e+01) (27, 3.05484914779663085938e+00) (28, 4.39329534769058227539e-01) (29, 4.40521240234375000000e-02) (30, 7.26937294006347656250e+00) (31, 7.85920333862304687500e+00) (32, 3.80284696817398071289e-01) (33, 4.78581413626670837402e-02) (34, 7.32151794433593750000e+00) (35, 3.86691055297851562500e+01) (36, 3.45308482646942138672e-01) (37, 2.03701451420783996582e-01) (38, 3.33255314826965332031e+00) (39, 8.07345390319824218750e+00) (40, 2.69112467765808105469e-01) (41, 2.34211325645446777344e-01) (42, 2.96257638931274414062e+00) (43, 1.90079078674316406250e+01) (44, 2.13981539011001586914e-01) (45, 2.32474595308303833008e-01) (46, 6.68960189819335937500e+00) (47, 8.40093040466308593750e+00) (48, 2.24386304616928100586e-01) (49, 2.36365199089050292969e-01) (50, 6.31250441074371337891e-01) (51, 4.63825149536132812500e+01) (52, 1.85133934020996093750e-01) (53, 1.28854960203170776367e-01) (54, 5.77980160713195800781e-01) (55, 2.22121520996093750000e+02) (56, 1.79153025150299072266e-01) (57, 2.72910296916961669922e-01) (58, 4.29642274975776672363e-02) (59, 4.58847900390625000000e+02) (60, 2.18477621674537658691e-01) (61, 2.88515537977218627930e-01) (62, 1.31805380806326866150e-02) (63, 1.10196060180664062500e+02) (64, 1.64134334772825241089e-03) (65, 1.26048231124877929688e+00) (66, -5.15583902597427368164e-02) (67, 4.58721069335937500000e+02) (68, -1.02280795574188232422e-01) (69, 1.23301601409912109375e+00) (70, -6.86023473739624023438e-01) (71, 2.31372337341308593750e+01) (72, -2.91851806640625000000e+01) (73, 2.24415302276611328125e+00) (74, -3.88553237915039062500e+01) (75, 2.94544428586959838867e-01) (0, -3.52814245223999023438e+00) (1, 6.09416055679321289062e+00) (2, -1.33839263916015625000e+01) (3, 6.05148822069168090820e-02) (4, -3.55879211425781250000e+00) (5, 6.13678169250488281250e+00) (6, -2.52311736345291137695e-01) (7, -1.30108475685119628906e-01) (8, -3.44288682937622070312e+00) (9, 7.08621597290039062500e+00) (10, -2.57389992475509643555e-02) (11, 3.55437956750392913818e-02) (12, -2.26837682723999023438e+00) (13, 7.32772469520568847656e-01) (14, 1.86005204916000366211e-01) (15, -2.66339063644409179688e-01) (16, -2.21151924133300781250e+00) (17, 7.39504456520080566406e-01) (18, 2.03470408916473388672e-01) (19, 9.74640250205993652344e-02) (20, -1.61611020565032958984e+00) (21, 2.14577054977416992188e+00) (22, 1.40877187252044677734e-01) (23, -5.81850446760654449463e-02) (24, -1.77944564819335937500e+00) (25, 8.98294925689697265625e-01) (26, 1.48455291986465454102e-01) (27, 1.66089504957199096680e-01) (28, -1.80637240409851074219e+00) (29, 6.52613818645477294922e-01) (30, 1.89189496450126171112e-03) (31, 9.28121730685234069824e-02) (32, -1.76971125602722167969e+00) (33, 5.03629028797149658203e-01) (34, 1.41784444451332092285e-01) (35, -2.20077157020568847656e-01) (36, -1.68034267425537109375e+00) (37, 4.11110311746597290039e-01) (38, 1.29004744812846183777e-02) (39, 3.78147028386592864990e-02) (40, -1.59817218780517578125e+00) (41, 4.52468782663345336914e-01) (42, -3.71372401714324951172e-01) (43, 1.76379531621932983398e-01) (44, -1.58793139457702636719e+00) (45, 4.26772803068161010742e-01) (46, -2.74073630571365356445e-01) (47, 2.58949309587478637695e-01) (48, -1.73734974861145019531e+00) (49, 3.01133346557617187500e+00) (50, -7.25883960723876953125e-01) (51, 3.00201207399368286133e-01) (52, -2.34162831306457519531e+00) (53, 3.12228822708129882812e+00) (54, -5.92276632785797119141e-01) (55, -2.09238791465759277344e+00) (56, -2.41516590118408203125e+00) (57, 3.08942890167236328125e+00) (58, 1.20405495166778564453e+00) (59, -1.50310054421424865723e-01) (60, -2.41555953025817871094e+00) (61, 3.08734941482543945312e+00) (62, 6.26922547817230224609e-02) (63, 2.75922238826751708984e-01) (64, -2.51717853546142578125e+00) (65, 5.50618052482604980469e-01) (66, 1.25334680080413818359e+00) (67, -5.87879657745361328125e-01) (68, -1.64931380748748779297e+00) (69, 5.17570339143276214600e-02) (70, 9.66450214385986328125e-01) (71, 3.39235424995422363281e-01) (72, -3.44851851463317871094e-01) (73, -7.68494427204132080078e-01) (74, 9.82611656188964843750e+00) (75, -5.49995660781860351562e-01) (0, -7.74578154087066650391e-02) (1, -9.85596120357513427734e-01) (2, -2.88900077342987060547e-01) (3, 3.67451965808868408203e-01) (4, -1.04246079921722412109e-01) (5, -1.71649888157844543457e-01) (6, -2.59592205286026000977e-01) (7, 3.19601595401763916016e-01) (8, -2.46719688177108764648e-01) (9, -1.98550283908843994141e-01) (10, -2.80098736286163330078e-01) (11, 1.10113120079040527344e+00) (12, -7.09195509552955627441e-02) (13, 9.86154656857252120972e-03) (14, 2.29767888784408569336e-01) (15, 1.68248340487480163574e-01) (16, -9.18449908494949340820e-02) (17, 1.53485015034675598145e-01) (18, 1.63164421916007995605e-01) (19, 4.15957242250442504883e-01) (20, -7.70603269338607788086e-02) (21, 2.05427408218383789062e-01) (22, 1.18621150031685829163e-02) (23, 7.67464786767959594727e-02) (24, -1.87092706561088562012e-01) (25, 2.57172584533691406250e-01) (26, 4.04625654220581054688e-01) (27, 4.03242528438568115234e-01) (28, -9.64149236679077148438e-02) (29, 9.69446264207363128662e-03) (30, -3.13518643379211425781e-01) (31, 1.07529556751251220703e+00) (32, -9.38234925270080566406e-02) (33, 6.41906484961509704590e-02) (34, 3.09647381305694580078e-01) (35, 1.29689782857894897461e-01) (36, -7.50726461410522460938e-02) (37, -3.46322311088442802429e-03) (38, 5.17908670008182525635e-02) (39, 3.60263496637344360352e-01) (40, -1.07673943042755126953e-01) (41, 1.12458214163780212402e-01) (42, 3.10339868068695068359e-01) (43, 4.51387047767639160156e-01) (44, 4.43105353042483329773e-03) (45, -3.25963236391544342041e-02) (46, -4.80862036347389221191e-02) (47, 3.77137511968612670898e-01) (48, -1.41984492540359497070e-01) (49, -8.35401117801666259766e-02) (50, 5.62489069998264312744e-02) (51, 3.36626231670379638672e-01) (52, -9.16473045945167541504e-02) (53, -4.16295230388641357422e-01) (54, -3.49254727363586425781e-01) (55, -5.28190755844116210938e+00) (56, -1.16730872541666030884e-02) (57, -2.79906570911407470703e-01) (58, 2.03944504261016845703e-01) (59, -1.20641386508941650391e+00) (60, 3.28055977821350097656e-01) (61, 4.48256134986877441406e-02) (62, -7.79741108417510986328e-02) (63, -8.13100278377532958984e-01) (64, 3.40500622987747192383e-01) (65, 8.17598104476928710938e-02) (66, -7.58818686008453369141e-02) (67, -1.01341295242309570312e+00) (68, 3.53219360113143920898e-01) (69, 2.17074781656265258789e-01) (70, -1.76775768399238586426e-01) (71, -7.47051239013671875000e+00) (72, 3.35922628641128540039e-01) (73, 3.55913162231445312500e-01) (74, -3.25186848640441894531e-01) (75, 4.15383636951446533203e-01) (0, -5.30315065383911132812e+00) (1, 3.01693350076675415039e-01) (2, -1.20054895019531250000e+03) (3, -1.81363832950592041016e+00) (4, -1.22505989074707031250e+01) (5, 6.47120848298072814941e-02) (6, -4.57843505859375000000e+02) (7, -4.52955245971679687500e+00) (8, -7.94460678100585937500e+00) (9, 3.95495118573307991028e-03) (10, -4.57976684570312500000e+02) (11, -1.78688859939575195312e+00) (12, -7.84800720214843750000e+00) (13, 5.22375777363777160645e-02) (14, -3.88133468627929687500e+01) (15, -1.30485744476318359375e+01) (16, -7.80151176452636718750e+00) (17, -2.80553139746189117432e-02) (18, -3.87360916137695312500e+01) (19, -8.51253986358642578125e+00) (20, -3.49562883377075195312e+00) (21, -1.44492611289024353027e-01) (22, -3.88470458984375000000e+01) (23, -1.76558151245117187500e+01) (24, -3.49104356765747070312e+00) (25, -1.02119378745555877686e-01) (26, -3.85232620239257812500e+01) (27, -1.76997680664062500000e+01) (28, -3.52574586868286132812e+00) (29, -2.85766702145338058472e-02) (30, -3.85131988525390625000e+01) (31, -1.74129486083984375000e+01) (32, -2.11011219024658203125e+00) (33, 1.22775591909885406494e-01) (34, -1.61005783081054687500e+01) (35, -3.81082267761230468750e+01) (36, -2.08161115646362304688e+00) (37, 1.09272450208663940430e-01) (38, -6.76276111602783203125e+00) (39, -1.76196441650390625000e+01) (40, -1.32177114486694335938e+00) (41, 1.13300763070583343506e-01) (42, -2.46410322189331054688e+00) (43, -3.82381286621093750000e+01) (44, -2.23276048898696899414e-01) (45, -1.15414969623088836670e-01) (46, -8.99761199951171875000e-01) (47, -7.40578460693359375000e+00) (48, -1.07469879090785980225e-01) (49, -3.06824505329132080078e-01) (50, -8.32984328269958496094e-01) (51, -7.79713344573974609375e+00) (52, -9.17950496077537536621e-02) (53, -3.69894921779632568359e-01) (54, 4.23013307154178619385e-02) (55, -6.97117675781250000000e+02) (56, 3.74514944851398468018e-02) (57, -2.88161247968673706055e-01) (58, 2.36574023962020874023e-01) (59, -4.56837463378906250000e+02) (60, 6.68994039297103881836e-02) (61, -3.01786690950393676758e-01) (62, 1.62508577108383178711e-01) (63, -4.43640441894531250000e+01) (64, 7.80768245458602905273e-02) (65, -6.66129767894744873047e-01) (66, 2.80982911586761474609e-01) (67, -9.40856872558593750000e+02) (68, 3.57033699750900268555e-01) (69, -8.00690829753875732422e-01) (70, 7.08533525466918945312e-01) (71, -2.51202697753906250000e+02) (72, 1.66674923896789550781e+00) (73, -6.61913216114044189453e-01) (74, 3.76258850097656250000e+01) (75, 7.26357102394104003906e-02) (0, 2.84170417785644531250e+01) (1, -3.49962830543518066406e-01) (2, 3.65732955932617187500e+01) (3, 3.10257375240325927734e-02) (4, 2.84910354614257812500e+01) (5, 2.64657855033874511719e-01) (6, 1.53368806838989257812e+01) (7, 2.11567029356956481934e-01) (8, 2.85782775878906250000e+01) (9, -3.83601576089859008789e-01) (10, 1.51457185745239257812e+01) (11, 6.66458383202552795410e-02) (12, 1.25424337387084960938e+01) (13, -1.11602413654327392578e+00) (14, 2.64845108985900878906e+00) (15, 4.92078161239624023438e+00) (16, 5.43355464935302734375e+00) (17, -9.42548394203186035156e-01) (18, 2.66877794265747070312e+00) (19, 2.88427889347076416016e-01) (20, 1.29987802505493164062e+01) (21, -9.10673737525939941406e-01) (22, 2.62808513641357421875e+00) (23, 1.11457443237304687500e+00) (24, 2.81216716766357421875e+00) (25, -1.07160425186157226562e+00) (26, 2.59464812278747558594e+00) (27, 2.30471467971801757812e+00) (28, 8.00781965255737304688e-01) (29, -1.22378671169281005859e+00) (30, 9.49114680290222167969e-01) (31, 8.48552942276000976562e-01) (32, 4.38590335845947265625e+00) (33, -1.33736324310302734375e+00) (34, 6.49063527584075927734e-01) (35, 3.65504531860351562500e+01) (36, 4.86252021789550781250e+00) (37, -1.38263523578643798828e+00) (38, -2.26305518299341201782e-03) (39, 8.33265781402587890625e+00) (40, -5.73005771636962890625e+00) (41, -1.42713904380798339844e+00) (42, -5.64044237136840820312e-01) (43, 3.60119318962097167969e+00) (44, -3.13445901870727539062e+00) (45, -1.29106807708740234375e+00) (46, -6.52247428894042968750e-01) (47, 1.61213803291320800781e+00) (48, -1.32525110244750976562e+01) (49, -5.59137523174285888672e-01) (50, 1.54305636882781982422e-01) (51, 1.60406470298767089844e+00) (52, -8.24080200195312500000e+01) (53, -3.30382376909255981445e-01) (54, 2.12690070271492004395e-01) (55, 3.67547378540039062500e+01) (56, -2.86593132019042968750e+01) (57, -4.92237120866775512695e-01) (58, 6.52589440345764160156e-01) (59, 3.67904815673828125000e+01) (60, -8.23706665039062500000e+01) (61, -4.81124162673950195312e-01) (62, 1.50384068489074707031e-01) (63, 3.47334098815917968750e+00) (64, -8.24591827392578125000e+01) (65, -5.21410048007965087891e-01) (66, 3.74675728380680084229e-05) (67, 1.81916885375976562500e+01) (68, -1.57665376663208007812e+01) (69, -5.85630774497985839844e-01) (70, 1.30245268344879150391e+00) (71, 8.14623534679412841797e-01) (72, -1.18189406394958496094e+00) (73, 1.39869630336761474609e-01) (74, 2.59037151336669921875e+01) (75, -4.60317254066467285156e-01) (0, -1.68813079595565795898e-01) (1, 1.03739953041076660156e+00) (2, 7.50622451305389404297e-02) (3, -4.06842827796936035156e-01) (4, -2.00961917638778686523e-01) (5, 1.85360276699066162109e+00) (6, 7.32522904872894287109e-02) (7, -1.72804087400436401367e-01) (8, -1.85392677783966064453e-01) (9, 1.35898208618164062500e+00) (10, 7.73755908012390136719e-01) (11, -4.83630955219268798828e-01) (12, -2.80961781740188598633e-01) (13, 9.70666289329528808594e-01) (14, 6.13501965999603271484e-01) (15, -1.19091555476188659668e-01) (16, -1.53557494282722473145e-01) (17, 1.04389035701751708984e+00) (18, 3.03470581769943237305e-01) (19, -1.77759915590286254883e-01) (20, -2.59680926799774169922e-01) (21, 7.42742717266082763672e-01) (22, 5.88030099868774414062e-01) (23, -2.48139381408691406250e-01) (24, -3.14442425966262817383e-01) (25, 6.63974583148956298828e-01) (26, 3.76027196645736694336e-01) (27, -2.33256638050079345703e-01) (28, -2.72111356258392333984e-01) (29, 8.96854400634765625000e-01) (30, 3.14449101686477661133e-01) (31, -3.35516244173049926758e-01) (32, -2.76944279670715332031e-01) (33, 1.65673360228538513184e-01) (34, 3.49390953779220581055e-01) (35, -3.31047177314758300781e-02) (36, -3.50519269704818725586e-01) (37, -1.92340314388275146484e-02) (38, 5.51323652267456054688e-01) (39, 6.24576210975646972656e-02) (40, -2.24784016609191894531e-01) (41, 5.15096001327037811279e-02) (42, 4.63931381702423095703e-01) (43, 7.31101274490356445312e-01) (44, -6.05493545532226562500e-01) (45, 9.86605789512395858765e-03) (46, 6.24581761658191680908e-02) (47, 7.11559355258941650391e-01) (48, -5.24697601795196533203e-01) (49, -6.14452213048934936523e-02) (50, 1.93812742829322814941e-01) (51, 6.97875738143920898438e-01) (52, -5.72642862796783447266e-01) (53, -1.40303224325180053711e-01) (54, 8.19994866847991943359e-01) (55, 1.33439004421234130859e+00) (56, -5.00151097774505615234e-01) (57, 5.90755492448806762695e-02) (58, -7.60392993688583374023e-02) (59, 1.41660678386688232422e+00) (60, -5.64160704612731933594e-01) (61, -8.31960141658782958984e-02) (62, 7.05913841724395751953e-01) (63, 1.22315597534179687500e+00) (64, -5.11868238449096679688e-01) (65, -1.91464573144912719727e-01) (66, 5.29157280921936035156e-01) (67, 1.97640800476074218750e+00) (68, -1.30376172065734863281e+00) (69, -2.63394743204116821289e-01) (70, 1.10413014888763427734e-01) (71, -2.42011144757270812988e-01) (72, -2.02161383628845214844e+00) (73, -2.26497367024421691895e-01) (74, -8.49282360076904296875e+00) (75, -5.95309376716613769531e-01) (0, -6.83420104980468750000e+01) (1, 1.96033358573913574219e+00) (2, -4.58164611816406250000e+02) (3, 2.57021605968475341797e-01) (4, -2.83652496337890625000e+01) (5, 7.72041797637939453125e-01) (6, -4.58274719238281250000e+02) (7, -4.65610206127166748047e-01) (8, -1.79212036132812500000e+01) (9, 7.20154523849487304688e-01) (10, -4.58325622558593750000e+02) (11, 9.40148979425430297852e-02) (12, -1.79938659667968750000e+01) (13, 5.71314811706542968750e-01) (14, -4.58314086914062500000e+02) (15, -2.68673553466796875000e+01) (16, -7.56893539428710937500e+00) (17, 4.56077456474304199219e-01) (18, -4.58165710449218750000e+02) (19, -1.27536869049072265625e+00) (20, -3.22176408767700195312e+00) (21, 4.68807369470596313477e-01) (22, -4.58229125976562500000e+02) (23, -1.75160903930664062500e+01) (24, -1.39825296401977539062e+00) (25, 4.49900448322296142578e-01) (26, -2.21268371582031250000e+02) (27, -2.82263374328613281250e+00) (28, -8.96524488925933837891e-01) (29, 3.39384317398071289062e-01) (30, -2.21253356933593750000e+02) (31, -2.83839225769042968750e+00) (32, -8.73788774013519287109e-01) (33, 1.43557935953140258789e-01) (34, -9.27147979736328125000e+01) (35, -2.20303985595703125000e+02) (36, -5.38784503936767578125e-01) (37, -3.05458664894104003906e-01) (38, -1.69424972534179687500e+01) (39, -3.79931640625000000000e+01) (40, -4.48960661888122558594e-01) (41, -2.92237967252731323242e-01) (42, -6.71920490264892578125e+00) (43, -3.79252471923828125000e+01) (44, -3.74692529439926147461e-01) (45, -6.67370498180389404297e-01) (46, -6.81527709960937500000e+00) (47, -1.01707255840301513672e+00) (48, -5.08265018463134765625e-01) (49, -2.03894639015197753906e+00) (50, -3.13459873199462890625e+00) (51, -3.70249509811401367188e+00) (52, -1.46876883506774902344e+00) (53, -5.83977413177490234375e+00) (54, -3.20395922660827636719e+00) (55, -4.56465698242187500000e+02) (56, -5.51459610462188720703e-01) (57, -2.87343096733093261719e+00) (58, -1.56912729144096374512e-01) (59, -9.39296508789062500000e+02) (60, -5.58869123458862304688e-01) (61, -2.87732815742492675781e+00) (62, -3.96541565656661987305e-01) (63, -8.40232086181640625000e+00) (64, -5.04910230636596679688e-01) (65, -5.10434293746948242188e+00) (66, 2.61336505413055419922e-01) (67, -1.18138464355468750000e+03) (68, 1.54571151733398437500e+00) (69, -1.97997498512268066406e+00) (70, 1.82714509963989257812e+00) (71, -2.51154266357421875000e+02) (72, 4.30789709091186523438e-01) (73, -5.08509969711303710938e+00) (74, 3.13100090026855468750e+01) (75, -3.36821168661117553711e-01) (0, -5.32150125503540039062e+00) (1, 7.39796996116638183594e-01) (2, -9.46172729492187500000e+02) (3, 4.30341735482215881348e-02) (4, -5.32219362258911132812e+00) (5, 1.00552427768707275391e+00) (6, -4.57596923828125000000e+02) (7, -4.60606193542480468750e+00) (8, -1.59404158592224121094e+00) (9, 4.95548814535140991211e-01) (10, -2.21301788330078125000e+02) (11, -1.86652886867523193359e+00) (12, -8.96331965923309326172e-01) (13, 4.64175194501876831055e-01) (14, -9.23863525390625000000e+01) (15, -2.69365653991699218750e+01) (16, -9.31603014469146728516e-01) (17, 3.83574217557907104492e-01) (18, -3.90326690673828125000e+01) (19, -8.57021808624267578125e+00) (20, -1.00759398937225341797e+00) (21, 9.16347503662109375000e-02) (22, -9.23697052001953125000e+01) (23, -7.36498546600341796875e+00) (24, -9.36239063739776611328e-01) (25, 2.39129923284053802490e-02) (26, -3.88997573852539062500e+01) (27, -7.37204074859619140625e+00) (28, -9.09097850322723388672e-01) (29, 3.97485792636871337891e-01) (30, -3.86353683471679687500e+01) (31, -1.73581619262695312500e+01) (32, -6.63245975971221923828e-01) (33, 4.87672463059425354004e-02) (34, -3.86440277099609375000e+01) (35, -3.81643562316894531250e+01) (36, -6.86541259288787841797e-01) (37, 1.67849019169807434082e-01) (38, -7.05765628814697265625e+00) (39, -7.43286609649658203125e+00) (40, -5.49301862716674804688e-01) (41, 3.27413231134414672852e-02) (42, -2.55534100532531738281e+00) (43, -1.58245058059692382812e+01) (44, -4.40052807331085205078e-01) (45, 5.22910170257091522217e-02) (46, -2.59326410293579101562e+00) (47, -2.97304773330688476562e+00) (48, 2.07348112016916275024e-02) (49, -1.09437415376305580139e-02) (50, -3.15763115882873535156e-01) (51, -3.52971839904785156250e+00) (52, -3.62184736877679824829e-03) (53, -1.68538704514503479004e-01) (54, 7.05370903015136718750e-02) (55, -2.22000152587890625000e+02) (56, 4.19069081544876098633e-02) (57, -1.97064816951751708984e-01) (58, 2.73182094097137451172e-01) (59, -4.56953247070312500000e+02) (60, 1.06063172221183776855e-01) (61, 2.98289768397808074951e-03) (62, 2.85791188478469848633e-01) (63, -1.95152511596679687500e+01) (64, 1.47010594606399536133e-01) (65, -1.17709347978234291077e-02) (66, 3.32034170627593994141e-01) (67, -9.40831298828125000000e+02) (68, 3.56410741806030273438e-01) (69, -6.44289776682853698730e-02) (70, 1.80978131294250488281e+00) (71, -2.51180725097656250000e+02) (72, 9.73123490810394287109e-01) (73, -2.92510122060775756836e-01) (74, 4.67218322753906250000e+01) (75, 6.21817819774150848389e-02) (76, 7.41482138633728027344e-01) (77, -1.38590300083160400391e+00) (78, -1.79500083923339843750e+01) (79, -1.50000000000000000000e+03) (80, 2.01060533523559570312e-01) (81, 1.68520367145538330078e+00) (82, -1.41495776367187500000e+03) (83, -1.50000000000000000000e+03) (84, -1.44978538155555725098e-01) 
