FANN_FLO_2.1
num_layers=3
learning_rate=0.700000
connection_rate=1.000000
network_type=0
learning_momentum=0.000000
training_algorithm=2
train_error_function=1
train_stop_function=0
cascade_output_change_fraction=0.010000
quickprop_decay=-0.000100
quickprop_mu=1.750000
rprop_increase_factor=1.200000
rprop_decrease_factor=0.500000
rprop_delta_min=0.000000
rprop_delta_max=50.000000
rprop_delta_zero=0.100000
cascade_output_stagnation_epochs=12
cascade_candidate_change_fraction=0.010000
cascade_candidate_stagnation_epochs=12
cascade_max_out_epochs=150
cascade_max_cand_epochs=150
cascade_num_candidate_groups=2
bit_fail_limit=3.49999994039535522461e-01
cascade_candidate_limit=1.00000000000000000000e+03
cascade_weight_multiplier=4.00000005960464477539e-01
cascade_activation_functions_count=10
cascade_activation_functions=3 5 7 8 10 11 14 15 16 17 
cascade_activation_steepnesses_count=4
cascade_activation_steepnesses=2.50000000000000000000e-01 5.00000000000000000000e-01 7.50000000000000000000e-01 1.00000000000000000000e+00 
layer_sizes=76 11 2 
scale_included=1
scale_mean_in=0.434004 0.434190 0.435642 0.436295 0.433844 0.433891 0.435385 0.435944 0.433773 0.433746 0.435319 0.436192 0.434049 0.434072 0.435585 0.436166 0.433917 0.433896 0.435439 0.436053 0.433611 0.433942 0.435437 0.435890 0.433959 0.434194 0.435552 0.436363 0.433907 0.433863 0.435414 0.436077 0.433707 0.433753 0.435235 0.436000 0.433947 0.434204 0.435882 0.436269 0.434100 0.434206 0.435420 0.436332 0.433928 0.433917 0.435433 0.435962 0.433605 0.433860 0.435690 0.436172 0.433835 0.433987 0.435686 0.436103 0.433954 0.434025 0.435541 0.436108 0.433945 0.434026 0.435722 0.436396 0.434175 0.433916 0.435707 0.436005 0.433652 0.433827 0.435429 0.435887 0.433656 0.433646 0.435450 
scale_deviation_in=0.190649 0.190249 0.190211 0.190613 0.190324 0.189976 0.189966 0.190432 0.190299 0.189998 0.190325 0.190580 0.190484 0.190148 0.190353 0.190469 0.190326 0.190030 0.190104 0.190350 0.190351 0.190149 0.190157 0.190620 0.190595 0.190301 0.190263 0.190484 0.190368 0.189866 0.190061 0.190362 0.190122 0.190181 0.190246 0.190507 0.190538 0.190305 0.190249 0.190640 0.190374 0.190011 0.190131 0.190486 0.190289 0.189972 0.190169 0.190472 0.190411 0.190221 0.190526 0.190530 0.190483 0.190037 0.190174 0.190406 0.190208 0.189967 0.190184 0.190515 0.190531 0.190196 0.190330 0.190782 0.190467 0.190081 0.190233 0.190216 0.190250 0.189866 0.190284 0.190298 0.190416 0.190140 0.190407 
scale_new_min_in=0.000000 0.000000 0.000000 0.000000 0.000000 0.000000 0.000000 0.000000 0.000000 0.000000 0.000000 0.000000 0.000000 0.000000 0.000000 0.000000 0.000000 0.000000 0.000000 0.000000 0.000000 0.000000 0.000000 0.000000 0.000000 0.000000 0.000000 0.000000 0.000000 0.000000 0.000000 0.000000 0.000000 0.000000 0.000000 0.000000 0.000000 0.000000 0.000000 0.000000 0.000000 0.000000 0.000000 0.000000 0.000000 0.000000 0.000000 0.000000 0.000000 0.000000 0.000000 0.000000 0.000000 0.000000 0.000000 0.000000 0.000000 0.000000 0.000000 0.000000 0.000000 0.000000 0.000000 0.000000 0.000000 0.000000 0.000000 0.000000 0.000000 0.000000 0.000000 0.000000 0.000000 0.000000 0.000000 
scale_factor_in=0.500000 0.500000 0.500000 0.500000 0.500000 0.500000 0.500000 0.500000 0.500000 0.500000 0.500000 0.500000 0.500000 0.500000 0.500000 0.500000 0.500000 0.500000 0.500000 0.500000 0.500000 0.500000 0.500000 0.500000 0.500000 0.500000 0.500000 0.500000 0.500000 0.500000 0.500000 0.500000 0.500000 0.500000 0.500000 0.500000 0.500000 0.500000 0.500000 0.500000 0.500000 0.500000 0.500000 0.500000 0.500000 0.500000 0.500000 0.500000 0.500000 0.500000 0.500000 0.500000 0.500000 0.500000 0.500000 0.500000 0.500000 0.500000 0.500000 0.500000 0.500000 0.500000 0.500000 0.500000 0.500000 0.500000 0.500000 0.500000 0.500000 0.500000 0.500000 0.500000 0.500000 0.500000 0.500000 
scale_mean_out=0.436152 
scale_deviation_out=0.190723 
scale_new_min_out=0.000000 
scale_factor_out=0.500000 
neurons (num_inputs, activation_function, activation_steepness)=(0, 0, 0.00000000000000000000e+00) (0, 0, 0.00000000000000000000e+00) (0, 0, 0.00000000000000000000e+00) (0, 0, 0.00000000000000000000e+00) (0, 0, 0.00000000000000000000e+00) (0, 0, 0.00000000000000000000e+00) (0, 0, 0.00000000000000000000e+00) (0, 0, 0.00000000000000000000e+00) (0, 0, 0.00000000000000000000e+00) (0, 0, 0.00000000000000000000e+00) (0, 0, 0.00000000000000000000e+00) (0, 0, 0.00000000000000000000e+00) (0, 0, 0.00000000000000000000e+00) (0, 0, 0.00000000000000000000e+00) (0, 0, 0.00000000000000000000e+00) (0, 0, 0.00000000000000000000e+00) (0, 0, 0.00000000000000000000e+00) (0, 0, 0.00000000000000000000e+00) (0, 0, 0.00000000000000000000e+00) (0, 0, 0.00000000000000000000e+00) (0, 0, 0.00000000000000000000e+00) (0, 0, 0.00000000000000000000e+00) (0, 0, 0.00000000000000000000e+00) (0, 0, 0.00000000000000000000e+00) (0, 0, 0.00000000000000000000e+00) (0, 0, 0.00000000000000000000e+00) (0, 0, 0.00000000000000000000e+00) (0, 0, 0.00000000000000000000e+00) (0, 0, 0.00000000000000000000e+00) (0, 0, 0.00000000000000000000e+00) (0, 0, 0.00000000000000000000e+00) (0, 0, 0.00000000000000000000e+00) (0, 0, 0.00000000000000000000e+00) (0, 0, 0.00000000000000000000e+00) (0, 0, 0.00000000000000000000e+00) (0, 0, 0.00000000000000000000e+00) (0, 0, 0.00000000000000000000e+00) (0, 0, 0.00000000000000000000e+00) (0, 0, 0.00000000000000000000e+00) (0, 0, 0.00000000000000000000e+00) (0, 0, 0.00000000000000000000e+00) (0, 0, 0.00000000000000000000e+00) (0, 0, 0.00000000000000000000e+00) (0, 0, 0.00000000000000000000e+00) (0, 0, 0.00000000000000000000e+00) (0, 0, 0.00000000000000000000e+00) (0, 0, 0.00000000000000000000e+00) (0, 0, 0.00000000000000000000e+00) (0, 0, 0.00000000000000000000e+00) (0, 0, 0.00000000000000000000e+00) (0, 0, 0.00000000000000000000e+00) (0, 0, 0.00000000000000000000e+00) (0, 0, 0.00000000000000000000e+00) (0, 0, 0.00000000000000000000e+00) (0, 0, 0.00000000000000000000e+00) (0, 0, 0.00000000000000000000e+00) (0, 0, 0.00000000000000000000e+00) (0, 0, 0.00000000000000000000e+00) (0, 0, 0.00000000000000000000e+00) (0, 0, 0.00000000000000000000e+00) (0, 0, 0.00000000000000000000e+00) (0, 0, 0.00000000000000000000e+00) (0, 0, 0.00000000000000000000e+00) (0, 0, 0.00000000000000000000e+00) (0, 0, 0.00000000000000000000e+00) (0, 0, 0.00000000000000000000e+00) (0, 0, 0.00000000000000000000e+00) (0, 0, 0.00000000000000000000e+00) (0, 0, 0.00000000000000000000e+00) (0, 0, 0.00000000000000000000e+00) (0, 0, 0.00000000000000000000e+00) (0, 0, 0.00000000000000000000e+00) (0, 0, 0.00000000000000000000e+00) (0, 0, 0.00000000000000000000e+00) (0, 0, 0.00000000000000000000e+00) (0, 0, 0.00000000000000000000e+00) (76, 3, 5.00000000000000000000e-01) (76, 3, 5.00000000000000000000e-01) (76, 3, 5.00000000000000000000e-01) (76, 3, 5.00000000000000000000e-01) (76, 3, 5.00000000000000000000e-01) (76, 3, 5.00000000000000000000e-01) (76, 3, 5.00000000000000000000e-01) (76, 3, 5.00000000000000000000e-01) (76, 3, 5.00000000000000000000e-01) (76, 3, 5.00000000000000000000e-01) (0, 3, 0.00000000000000000000e+00) (11, 3, 5.00000000000000000000e-01) (0, 3, 0.00000000000000000000e+00) 
connections (connected_to_neuron, weight)=(0, -5.00180542469024658203e-01) (1, 2.29346990585327148438e+00) (2, -5.10863590240478515625e+00) (3, 3.60242426395416259766e-01) (4, -5.32571613788604736328e-01) (5, 3.34811002016067504883e-01) (6, -1.24649143218994140625e+00) (7, 1.35280236601829528809e-01) (8, -1.01511776447296142578e+00) (9, -2.56307333707809448242e-01) (10, -1.20671546459197998047e+00) (11, 2.86668390035629272461e-01) (12, -1.65162980556488037109e+00) (13, -3.54770809412002563477e-01) (14, -7.92807936668395996094e-01) (15, 1.46080628037452697754e-01) (16, -1.76473081111907958984e+00) (17, 2.40645676851272583008e-01) (18, 1.07047784328460693359e+00) (19, 2.99469441175460815430e-01) (20, -1.65779197216033935547e+00) (21, 2.95253425836563110352e-01) (22, -1.51808857917785644531e-01) (23, 3.50030124187469482422e-01) (24, -1.21679711341857910156e+00) (25, 3.05547207593917846680e-01) (26, 4.72597330808639526367e-01) (27, 3.40894281864166259766e-01) (28, -9.29788529872894287109e-01) (29, 2.85174399614334106445e-01) (30, -3.63091006875038146973e-03) (31, 2.82658547163009643555e-01) (32, -1.43427240848541259766e+00) (33, 1.53862190246582031250e+00) (34, 5.63162684440612792969e-01) (35, -2.07336711883544921875e+00) (36, -2.01739740371704101562e+00) (37, 1.48055469989776611328e+00) (38, 3.69346588850021362305e-01) (39, 2.38088622689247131348e-01) (40, -4.87589597702026367188e+00) (41, 1.34625303745269775391e+00) (42, 8.47939729690551757812e-01) (43, 2.88365393877029418945e-01) (44, -4.92628383636474609375e+00) (45, 1.99969783425331115723e-01) (46, 1.08320832252502441406e-01) (47, 2.43770301342010498047e-01) (48, -4.81360340118408203125e+00) (49, 1.13222289085388183594e+00) (50, 3.69987457990646362305e-01) (51, 1.46064862608909606934e-01) (52, -2.65957975387573242188e+00) (53, 1.07523107528686523438e+00) (54, -3.22898221015930175781e+00) (55, -1.65496444702148437500e+00) (56, -2.62567234039306640625e+00) (57, 1.89360868930816650391e+00) (58, 6.38007652014493942261e-04) (59, -1.19799304008483886719e+00) (60, -2.30905318260192871094e+00) (61, 1.79531121253967285156e+00) (62, -9.32147681713104248047e-01) (63, 3.61878395080566406250e-01) (64, -1.17578470706939697266e+00) (65, 1.88284337520599365234e+00) (66, -4.72976326942443847656e-01) (67, -2.22240567207336425781e+00) (68, 6.65810406208038330078e-01) (69, 1.82480275630950927734e+00) (70, 3.80733251571655273438e-01) (71, 1.18187320232391357422e+00) (72, 4.80634355545043945312e+00) (73, 1.11283264160156250000e+01) (74, 9.31651782989501953125e+00) (75, 3.63291263580322265625e-01) (0, 2.97055959701538085938e-01) (1, 4.48874592781066894531e-01) (2, -4.46447181701660156250e+00) (3, 4.21691179275512695312e-01) (4, 2.74916112422943115234e-01) (5, 3.82527112960815429688e-01) (6, -1.37847924232482910156e+00) (7, 2.90168553590774536133e-01) (8, 3.65963846445083618164e-01) (9, 4.98271852731704711914e-01) (10, -9.84869241714477539062e-01) (11, 3.98102074861526489258e-01) (12, 5.50512135028839111328e-01) (13, 4.05248373746871948242e-01) (14, 3.33581894636154174805e-01) (15, 3.48146289587020874023e-01) (16, 9.67980504035949707031e-01) (17, 4.24161881208419799805e-01) (18, -4.94714342057704925537e-02) (19, 3.16076666116714477539e-01) (20, 1.05066156387329101562e+00) (21, 3.62844467163085937500e-01) (22, 6.39384314417839050293e-02) (23, 3.50118488073348999023e-01) (24, 1.03257894515991210938e+00) (25, 4.08936023712158203125e-01) (26, -1.68495908379554748535e-01) (27, 4.34302598237991333008e-01) (28, 1.03542482852935791016e+00) (29, 3.35545688867568969727e-01) (30, -6.89554587006568908691e-03) (31, 4.38934355974197387695e-01) (32, 9.85885739326477050781e-01) (33, 4.82554465532302856445e-01) (34, 9.75257813930511474609e-01) (35, -4.49351251125335693359e-01) (36, 1.26994538307189941406e+00) (37, 3.58685612678527832031e-01) (38, 4.81845349073410034180e-01) (39, 1.74811873584985733032e-02) (40, 8.46240341663360595703e-01) (41, 3.58452111482620239258e-01) (42, 2.49029144644737243652e-01) (43, -7.67736556008458137512e-03) (44, 9.82252359390258789062e-01) (45, 8.02452206611633300781e-01) (46, 8.18594574928283691406e-01) (47, -1.14744335412979125977e-01) (48, 9.78725373744964599609e-01) (49, -3.98452170193195343018e-02) (50, 1.05591058731079101562e+00) (51, 4.72639799118041992188e-02) (52, 9.80820298194885253906e-01) (53, -1.11004865169525146484e+00) (54, 9.15999710559844970703e-01) (55, -6.86782121658325195312e+00) (56, 1.02832996845245361328e+00) (57, -4.25999259948730468750e+00) (58, 1.61730515956878662109e+00) (59, -4.40675067901611328125e+00) (60, 1.07614040374755859375e+00) (61, 2.66998380422592163086e-01) (62, 1.10950899124145507812e+00) (63, -1.21162474155426025391e+00) (64, 1.12214112281799316406e+00) (65, 8.41084569692611694336e-02) (66, 1.47030186653137207031e+00) (67, -5.08138656616210937500e+00) (68, 1.88787007331848144531e+00) (69, 2.21977919340133666992e-01) (70, 2.46931076049804687500e+00) (71, -7.92214334011077880859e-01) (72, 1.56463260650634765625e+01) (73, 1.62482440471649169922e-01) (74, 1.42956447601318359375e+01) (75, 8.74898529052734375000e+00) (0, -1.40549480915069580078e-01) (1, -8.94860267639160156250e-01) (2, 3.52107465267181396484e-01) (3, 1.41165465116500854492e-01) (4, 2.68399529159069061279e-02) (5, -7.35350310802459716797e-01) (6, 3.82937639951705932617e-01) (7, 4.43072170019149780273e-02) (8, -1.90999619662761688232e-02) (9, 2.13519304990768432617e-01) (10, 3.94573062658309936523e-01) (11, 3.02162114530801773071e-02) (12, -7.64574348926544189453e-01) (13, 7.63133823871612548828e-01) (14, 3.73720601201057434082e-02) (15, 1.43113508820533752441e-01) (16, -7.89689302444458007812e-01) (17, 7.30716049671173095703e-01) (18, 1.34701102972030639648e-01) (19, 1.42073243856430053711e-01) (20, -7.52466320991516113281e-01) (21, 6.27149283885955810547e-01) (22, 4.06913399696350097656e-01) (23, 1.29665836691856384277e-01) (24, -6.55431330204010009766e-01) (25, 3.97953003644943237305e-01) (26, 3.80142152309417724609e-01) (27, 3.99538964033126831055e-01) (28, -6.14301323890686035156e-01) (29, 2.88246124982833862305e-01) (30, 1.13378539681434631348e-01) (31, 3.68634045124053955078e-01) (32, -7.05171823501586914062e-01) (33, 1.73179641366004943848e-01) (34, 2.81582355499267578125e-01) (35, 5.62439560890197753906e-01) (36, -9.56029057502746582031e-01) (37, 3.81828337907791137695e-01) (38, 2.22483843564987182617e-01) (39, 3.73070329427719116211e-01) (40, -8.90272021293640136719e-01) (41, 4.08575773239135742188e-01) (42, 2.51632601022720336914e-01) (43, 4.72964584827423095703e-01) (44, -9.21488523483276367188e-01) (45, 4.95180547237396240234e-01) (46, 4.66283977031707763672e-01) (47, 4.11378979682922363281e-01) (48, -1.05684959888458251953e+00) (49, 7.75745034217834472656e-01) (50, 3.22633206844329833984e-01) (51, 6.86298787593841552734e-01) (52, -8.60153198242187500000e-01) (53, 3.70315134525299072266e-01) (54, 1.74181914329528808594e+00) (55, 2.15178775787353515625e+00) (56, -9.98862981796264648438e-01) (57, 3.81223857402801513672e-01) (58, 9.44796502590179443359e-02) (59, 1.45258176326751708984e+00) (60, -9.87738490104675292969e-01) (61, 1.81314438581466674805e-01) (62, 1.23039543628692626953e+00) (63, 9.01563525199890136719e-01) (64, -1.72842502593994140625e+00) (65, 3.83107066154479980469e-01) (66, 7.23536014556884765625e-01) (67, 1.72400474548339843750e+00) (68, -1.66084718704223632812e+00) (69, 8.28014969825744628906e-01) (70, 1.82066082954406738281e-01) (71, 2.31594419479370117188e+00) (72, -2.12583255767822265625e+00) (73, 4.32311087846755981445e-01) (74, -6.36442136764526367188e+00) (75, -4.13673830032348632812e+00) (0, 2.71745659410953521729e-02) (1, 2.59383797645568847656e-01) (2, 7.62997341156005859375e+00) (3, 3.55469077825546264648e-01) (4, -7.93185532093048095703e-02) (5, 2.31119498610496520996e-01) (6, 7.16922521591186523438e+00) (7, 2.95914739370346069336e-01) (8, 6.23231604695320129395e-02) (9, 2.10187524557113647461e-01) (10, 3.41314935684204101562e+00) (11, 1.67383372783660888672e-01) (12, -6.63145780563354492188e-02) (13, 1.46254926919937133789e-01) (14, 3.33392715454101562500e+00) (15, 7.28791058063507080078e-01) (16, -1.03436186909675598145e-01) (17, 1.56104087829589843750e-01) (18, 9.22760128974914550781e-01) (19, 4.03004825115203857422e-01) (20, -1.43675934523344039917e-02) (21, -4.23226952552795410156e-02) (22, 3.12693047523498535156e+00) (23, 4.69363838434219360352e-01) (24, -1.41680300235748291016e-01) (25, -1.01130194962024688721e-01) (26, 1.01478421688079833984e+00) (27, 3.11956226825714111328e-01) (28, -1.34960204362869262695e-01) (29, -1.63638386875391006470e-02) (30, 4.45554304122924804688e+00) (31, 3.23889642953872680664e-01) (32, 3.51153649389743804932e-02) (33, -5.71466982364654541016e-02) (34, 1.16409766674041748047e+00) (35, 1.04295120239257812500e+01) (36, -6.87500238418579101562e-02) (37, -5.77602162957191467285e-02) (38, 1.36166703701019287109e+00) (39, 3.96384954452514648438e-01) (40, -2.90483962744474411011e-02) (41, -5.35397306084632873535e-02) (42, 2.91140139102935791016e-01) (43, 6.16908848285675048828e-01) (44, 6.37542977929115295410e-02) (45, 2.99725141376256942749e-02) (46, 5.96206545829772949219e-01) (47, 9.26324725151062011719e-01) (48, -6.60271123051643371582e-02) (49, -6.64941743016242980957e-02) (50, 2.99832463264465332031e-01) (51, 1.54166257381439208984e+00) (52, 1.74650661647319793701e-02) (53, -2.21736747771501541138e-02) (54, 1.53434908390045166016e+00) (55, 2.17348480224609375000e+00) (56, 1.70075818896293640137e-02) (57, -4.24982905387878417969e-02) (58, 2.69140064716339111328e-01) (59, 7.00354719161987304688e+00) (60, -1.34760320186614990234e-01) (61, -9.88967567682266235352e-02) (62, 9.77268099784851074219e-01) (63, 1.63707637786865234375e+00) (64, 7.82182142138481140137e-02) (65, -8.57224538922309875488e-02) (66, 2.07581758499145507812e+00) (67, 6.47752380371093750000e+00) (68, 7.35732913017272949219e-01) (69, -1.72840908169746398926e-01) (70, -3.60447168350219726562e-01) (71, 2.47794675827026367188e+00) (72, -9.48588085174560546875e+00) (73, -4.27845478057861328125e-01) (74, -2.71465873718261718750e+01) (75, -6.04715347290039062500e-02) (0, 1.01788222789764404297e-01) (1, -8.36420431733131408691e-02) (2, 1.50000000000000000000e+03) (3, 3.50087359547615051270e-02) (4, 1.16311371326446533203e-01) (5, 1.49382412433624267578e-01) (6, 3.25230499267578125000e+02) (7, 9.67437267303466796875e-01) (8, 5.94173595309257507324e-02) (9, 3.08275818824768066406e-01) (10, 1.35721298217773437500e+02) (11, 5.48399686813354492188e-01) (12, 1.24469883739948272705e-01) (13, 4.22558248043060302734e-01) (14, 2.67411975860595703125e+01) (15, 8.32592666149139404297e-01) (16, 1.72820255160331726074e-01) (17, 4.53142106533050537109e-01) (18, 2.27102136611938476562e+00) (19, 6.80619478225708007812e-01) (20, -1.15183498710393905640e-02) (21, 5.41924536228179931641e-01) (22, 2.55230159759521484375e+01) (23, 8.26505601406097412109e-01) (24, 4.53086756169795989990e-02) (25, 4.46326196193695068359e-01) (26, 3.61430621147155761719e+00) (27, 1.05863213539123535156e+00) (28, 8.75695422291755676270e-02) (29, 4.43636029958724975586e-01) (30, 2.53537673950195312500e+01) (31, 9.80257630348205566406e-01) (32, 1.92792400717735290527e-01) (33, 8.34264516830444335938e-01) (34, 2.06309342384338378906e+00) (35, 5.04391479492187500000e+00) (36, 9.70434173941612243652e-02) (37, 8.35710644721984863281e-01) (38, 2.47054171562194824219e+00) (39, 1.13528883457183837891e+00) (40, -1.96214616298675537109e-01) (41, 1.86912572383880615234e+00) (42, 9.53225195407867431641e-02) (43, 9.94445502758026123047e-01) (44, -1.48320925235748291016e+00) (45, 1.78787195682525634766e+00) (46, 2.18003678321838378906e+00) (47, 1.69302499294281005859e+00) (48, -5.69112539291381835938e-01) (49, 1.93259108066558837891e+00) (50, 1.52785092592239379883e-01) (51, 1.53635728359222412109e+00) (52, 1.40558749437332153320e-01) (53, 1.86739194393157958984e+00) (54, 3.38860660791397094727e-01) (55, 2.75353755950927734375e+01) (56, 1.56709536910057067871e-01) (57, 9.84621524810791015625e-01) (58, 7.11601898074150085449e-02) (59, 1.72385040283203125000e+02) (60, 1.57052427530288696289e-01) (61, 1.07642495632171630859e+00) (62, 1.98186580091714859009e-02) (63, 1.81732881069183349609e+00) (64, -6.41600936651229858398e-02) (65, 8.26001107692718505859e-01) (66, -2.42143869400024414062e-01) (67, 1.50000000000000000000e+03) (68, 1.21971917152404785156e+00) (69, 7.95205116271972656250e-01) (70, -7.67735302448272705078e-01) (71, 5.59420593261718750000e+02) (72, -2.13718452453613281250e+01) (73, 1.94591128826141357422e+00) (74, -8.31763839721679687500e+00) (75, 5.71632981300354003906e-02) (0, 4.38874542713165283203e-01) (1, 9.54504609107971191406e-01) (2, -3.61572289466857910156e+00) (3, 7.98407852649688720703e-01) (4, 3.54888170957565307617e-01) (5, 5.32841444015502929688e-01) (6, -1.58351492881774902344e+00) (7, 7.31904089450836181641e-01) (8, 6.79523497819900512695e-02) (9, 1.12108623981475830078e+00) (10, -1.36730206012725830078e+00) (11, 7.26642847061157226562e-01) (12, 1.91537350416183471680e-01) (13, 1.19004487991333007812e+00) (14, -6.88984453678131103516e-01) (15, 7.81703412532806396484e-01) (16, 8.81371721625328063965e-02) (17, 5.50418794155120849609e-01) (18, -3.03921699523925781250e-01) (19, 8.34549009799957275391e-01) (20, 1.95692688226699829102e-01) (21, 3.90578776597976684570e-01) (22, -4.48228538036346435547e-01) (23, 7.62955844402313232422e-01) (24, 1.40640079975128173828e-01) (25, 2.57680803537368774414e-01) (26, -4.20503497123718261719e-01) (27, 6.78288936614990234375e-01) (28, 1.84809193015098571777e-01) (29, 1.38715803623199462891e-01) (30, -8.76586437225341796875e-01) (31, 7.44198679924011230469e-01) (32, 2.60873019695281982422e-01) (33, 1.34943440556526184082e-01) (34, 2.35017895698547363281e-01) (35, 1.74623187631368637085e-02) (36, 2.76307046413421630859e-01) (37, 9.64565649628639221191e-02) (38, -5.22010959684848785400e-02) (39, 2.02805876731872558594e-01) (40, 1.71457991003990173340e-01) (41, 1.40514835715293884277e-01) (42, -1.80448181927204132080e-02) (43, 1.64704129099845886230e-01) (44, 2.20833823084831237793e-01) (45, 3.48875731229782104492e-01) (46, -6.06330335140228271484e-01) (47, 3.54565113782882690430e-01) (48, 1.41380757093429565430e-01) (49, 3.87541919946670532227e-01) (50, -2.30524286627769470215e-01) (51, 2.61950761079788208008e-01) (52, 2.06967160105705261230e-01) (53, -8.82058799266815185547e-01) (54, -1.64183151721954345703e+00) (55, -1.28066825866699218750e+01) (56, 1.32729709148406982422e-01) (57, -5.73083162307739257812e+00) (58, 5.78642487525939941406e-01) (59, -3.31612646579742431641e-01) (60, 3.76554161310195922852e-01) (61, 4.79052960872650146484e-02) (62, 4.60738062858581542969e-01) (63, -2.35483437776565551758e-01) (64, 8.53857517242431640625e-01) (65, 5.54300427436828613281e-01) (66, 7.33468770980834960938e-01) (67, -1.38510227203369140625e+00) (68, 9.25841212272644042969e-01) (69, 9.34957414865493774414e-02) (70, 1.04833030700683593750e+00) (71, -5.38479685783386230469e-01) (72, 4.14905118942260742188e+00) (73, 2.50970304012298583984e-01) (74, 1.60908164978027343750e+01) (75, 1.10736427307128906250e+01) (0, -2.12498164176940917969e+00) (1, -1.62448811531066894531e+00) (2, 3.05399328470230102539e-01) (3, -1.33642807602882385254e-01) (4, -2.15601372718811035156e+00) (5, -1.12752509117126464844e+00) (6, 2.36982062458992004395e-01) (7, 9.83249545097351074219e-02) (8, -2.18822455406188964844e+00) (9, -1.18470895290374755859e+00) (10, 5.66889494657516479492e-02) (11, 3.10211151838302612305e-01) (12, -2.26635646820068359375e+00) (13, 5.22559918463230133057e-02) (14, -1.16608059406280517578e+00) (15, 1.35556906461715698242e-01) (16, -4.99024057388305664062e+00) (17, 1.59745287895202636719e+00) (18, 3.87087613344192504883e-01) (19, 2.82496303319931030273e-01) (20, -5.19238471984863281250e+00) (21, 5.48128938674926757812e+00) (22, -2.00871109962463378906e+00) (23, 2.45761930942535400391e-01) (24, -4.99963665008544921875e+00) (25, 4.62077903747558593750e+00) (26, 1.57922878861427307129e-01) (27, 2.95123934745788574219e-01) (28, -3.45933842658996582031e+00) (29, 4.46555805206298828125e+00) (30, -7.30289578437805175781e-01) (31, 3.00315618515014648438e-01) (32, -3.56069731712341308594e+00) (33, 4.49336194992065429688e+00) (34, 1.14644117653369903564e-01) (35, 7.93013945221900939941e-02) (36, -2.81505894660949707031e+00) (37, -3.85101616382598876953e-01) (38, 3.24464552104473114014e-02) (39, 3.04676860570907592773e-01) (40, -1.52027583122253417969e+00) (41, -6.03045821189880371094e-01) (42, -1.16167330741882324219e+00) (43, 1.59478828310966491699e-01) (44, -1.60147762298583984375e+00) (45, -5.94517350196838378906e-01) (46, -1.27818858623504638672e+00) (47, 4.80766445398330688477e-01) (48, -1.53642499446868896484e+00) (49, -5.04043996334075927734e-01) (50, -2.25631690025329589844e+00) (51, 4.54169422388076782227e-01) (52, -1.50471723079681396484e+00) (53, -3.91695410013198852539e-01) (54, -2.74204659461975097656e+00) (55, -1.11863684654235839844e+00) (56, -1.44520640373229980469e+00) (57, -3.37695598602294921875e-01) (58, -8.10963988304138183594e-01) (59, -2.28264238685369491577e-02) (60, -1.07672679424285888672e+00) (61, -3.96939098834991455078e-01) (62, -8.22265088558197021484e-01) (63, 3.26220959424972534180e-01) (64, -1.81394171714782714844e+00) (65, 1.55996000766754150391e+00) (66, -7.59766101837158203125e-01) (67, -3.41125488281250000000e+00) (68, 1.08771514892578125000e+00) (69, 1.59502875804901123047e+00) (70, 2.57809668779373168945e-01) (71, 4.99737635254859924316e-02) (72, 2.05773010253906250000e+01) (73, 1.51319444179534912109e+00) (74, 6.20212745666503906250e+00) (75, -7.34478354454040527344e-01) (0, 5.11654615402221679688e-02) (1, -4.65246319770812988281e-01) (2, -1.22484729003906250000e+03) (3, 4.90496575832366943359e-01) (4, -7.80077725648880004883e-02) (5, -5.13449549674987792969e-01) (6, -3.13664703369140625000e+02) (7, 1.73444703221321105957e-01) (8, 4.70783002674579620361e-02) (9, -6.27002954483032226562e-01) (10, -3.13671142578125000000e+02) (11, 5.75830936431884765625e-01) (12, -1.02938845753669738770e-01) (13, -2.08206489682197570801e-01) (14, -1.31903671264648437500e+02) (15, -1.86908066272735595703e+00) (16, -4.87981289625167846680e-02) (17, -3.51016044616699218750e-01) (18, -2.67029380798339843750e+00) (19, 3.29673051834106445312e-01) (20, 5.92952333390712738037e-02) (21, -4.74561899900436401367e-01) (22, -1.31723190307617187500e+02) (23, -7.30381160974502563477e-02) (24, 3.91310393810272216797e-01) (25, -3.50786983966827392578e-01) (26, -4.98164504766464233398e-01) (27, 2.62905001640319824219e-01) (28, 1.00055336952209472656e-01) (29, -3.04024159908294677734e-01) (30, -9.93166637420654296875e+00) (31, 3.09667348861694335938e-01) (32, -3.59204374253749847412e-02) (33, -5.39468646049499511719e-01) (34, -4.20851647853851318359e-01) (35, -5.86636962890625000000e+01) (36, 2.10777774453163146973e-01) (37, -5.14451205730438232422e-01) (38, -6.42854928970336914062e-01) (39, 1.92753359675407409668e-01) (40, 2.44120061397552490234e-01) (41, -6.42037272453308105469e-01) (42, 1.03040218353271484375e-01) (43, -5.95611095428466796875e-01) (44, 4.02175998687744140625e+00) (45, -4.67608392238616943359e-01) (46, -4.07653045654296875000e+00) (47, -3.66112500429153442383e-01) (48, 4.02307271957397460938e+00) (49, -9.39569354057312011719e-01) (50, -8.67642611265182495117e-02) (51, -7.65307128429412841797e-01) (52, -7.96623006463050842285e-02) (53, -9.19426560401916503906e-01) (54, -2.08067584037780761719e+00) (55, -6.40916381835937500000e+02) (56, 2.46160209178924560547e-01) (57, -9.43724989891052246094e-01) (58, -1.14059902727603912354e-01) (59, -7.21954956054687500000e+02) (60, 3.16300570964813232422e-01) (61, -2.52639442682266235352e-01) (62, -1.45830881595611572266e+00) (63, -4.22455787658691406250e+00) (64, 2.86921977996826171875e-01) (65, -2.08699464797973632812e-01) (66, -4.87877786159515380859e-01) (67, -1.24611401367187500000e+03) (68, 3.68736684322357177734e-01) (69, -1.68566071987152099609e+00) (70, 8.38258504867553710938e-01) (71, -1.08143884277343750000e+03) (72, 1.39766883850097656250e+00) (73, -1.62163960933685302734e+00) (74, 4.65138626098632812500e+00) (75, 1.14411592483520507812e-01) (0, -7.12155997753143310547e-01) (1, -2.89244008064270019531e+00) (2, -3.63613605499267578125e+00) (3, 3.29865187406539916992e-01) (4, -9.70300436019897460938e-01) (5, -3.11485934257507324219e+00) (6, -3.28598690032958984375e+00) (7, 2.37353384494781494141e-01) (8, -7.66988635063171386719e-01) (9, -1.17839832305908203125e+01) (10, -3.65108489990234375000e+00) (11, 2.52403229475021362305e-01) (12, -5.28262794017791748047e-01) (13, -3.41484880447387695312e+00) (14, -1.12226414680480957031e+00) (15, -4.51783724129199981689e-02) (16, -5.46291887760162353516e-01) (17, -3.42332744598388671875e+00) (18, 1.13712817430496215820e-01) (19, 1.33243754506111145020e-01) (20, -4.97325837612152099609e-01) (21, -3.39308309555053710938e+00) (22, -1.14767217636108398438e+00) (23, 1.25019341707229614258e-01) (24, -4.85309123992919921875e-01) (25, -3.52736330032348632812e+00) (26, -1.48705802857875823975e-02) (27, 3.45027953386306762695e-01) (28, -7.07782745361328125000e-01) (29, -3.51173353195190429688e+00) (30, -2.73351144790649414062e+00) (31, 2.41073548793792724609e-01) (32, -1.50131428241729736328e+00) (33, -5.86123800277709960938e+00) (34, -3.26001308858394622803e-02) (35, -9.90673542022705078125e+00) (36, -1.51429116725921630859e+00) (37, -1.19124021530151367188e+01) (38, 1.02074466645717620850e-01) (39, 1.15300528705120086670e-03) (40, -7.91909694671630859375e-01) (41, -1.38942718505859375000e+02) (42, 9.24750417470932006836e-02) (43, -1.55252683162689208984e+00) (44, 8.33834934234619140625e+00) (45, -5.80048904418945312500e+01) (46, -3.87052917480468750000e+00) (47, 1.77676260471343994141e-01) (48, 3.50462388992309570312e+00) (49, -5.79689407348632812500e+01) (50, -2.50820088386535644531e+00) (51, -1.72513648867607116699e-02) (52, 4.09906327724456787109e-01) (53, -2.47082290649414062500e+01) (54, -6.62718105316162109375e+00) (55, -1.41923995971679687500e+02) (56, -1.38613855838775634766e+00) (57, -1.07940168380737304688e+01) (58, -1.79970180988311767578e+00) (59, -6.07589569091796875000e+01) (60, 2.27346515655517578125e+00) (61, -5.06966304779052734375e+00) (62, -2.10238409042358398438e+00) (63, -1.44344520568847656250e+00) (64, -5.50828933715820312500e-01) (65, -1.00210294723510742188e+01) (66, -5.11877119541168212891e-01) (67, -4.09814941406250000000e+02) (68, 8.01895713806152343750e+00) (69, -8.79233837127685546875e-01) (70, -1.77872967720031738281e+00) (71, -3.53515052795410156250e+01) (72, 5.95447044372558593750e+01) (73, -9.51754283905029296875e+00) (74, 5.18822145462036132812e+00) (75, 3.79384219646453857422e-01) (0, 9.31705813854932785034e-03) (1, 2.59409928321838378906e+00) (2, -5.78014969825744628906e-01) (3, -8.00524890422821044922e-01) (4, -6.78770570084452629089e-03) (5, 8.91283631324768066406e-01) (6, -3.39026659727096557617e-01) (7, 2.44498521089553833008e-01) (8, 2.39031780511140823364e-02) (9, 7.54753530025482177734e-01) (10, 3.18125128746032714844e-01) (11, -4.58772850036621093750e+00) (12, -1.62476692348718643188e-02) (13, 7.28263974189758300781e-01) (14, 2.23330795764923095703e-01) (15, 2.53277689218521118164e-01) (16, -6.44959434866905212402e-02) (17, 6.75538659095764160156e-01) (18, -1.07909047603607177734e+00) (19, -4.06355440616607666016e-01) (20, 3.17731462419033050537e-02) (21, 5.39998114109039306641e-01) (22, 4.99478310346603393555e-01) (23, 2.21049964427947998047e-01) (24, -7.57218822836875915527e-02) (25, 3.63197177648544311523e-01) (26, -7.50764667987823486328e-01) (27, 1.79364323616027832031e-01) (28, 4.50959876179695129395e-02) (29, 3.34935486316680908203e-01) (30, 5.60842692852020263672e-01) (31, -1.94205391407012939453e+00) (32, -1.12086124718189239502e-01) (33, 9.25022438168525695801e-02) (34, -8.33869993686676025391e-01) (35, 3.60406368970870971680e-01) (36, -2.26022750139236450195e-01) (37, 9.74659770727157592773e-02) (38, 3.81222188472747802734e-01) (39, 5.53770482540130615234e-01) (40, -2.14692175388336181641e-01) (41, -9.40931588411331176758e-03) (42, 4.31170612573623657227e-02) (43, 8.08261513710021972656e-01) (44, -6.98656290769577026367e-02) (45, -8.08207225054502487183e-03) (46, -7.40041211247444152832e-02) (47, 6.49690985679626464844e-01) (48, -2.23521411418914794922e-01) (49, 4.52637746930122375488e-02) (50, 9.28727257996797561646e-03) (51, 7.54540443420410156250e-01) (52, -2.09424853324890136719e-01) (53, -2.90982753038406372070e-01) (54, 5.02967476844787597656e-01) (55, 9.93240118026733398438e-01) (56, -2.54012256860733032227e-01) (57, -3.37848097085952758789e-01) (58, 2.80314553529024124146e-02) (59, 1.09025871753692626953e+00) (60, -2.18819111585617065430e-01) (61, -4.34633821249008178711e-01) (62, -7.99832865595817565918e-02) (63, 9.72338438034057617188e-01) (64, -5.13726592063903808594e-01) (65, -4.47988271713256835938e-01) (66, 3.92669677734375000000e-01) (67, 1.59396553039550781250e+00) (68, -4.92653965950012207031e-01) (69, -4.72663998603820800781e-01) (70, -4.72305297851562500000e-01) (71, 1.10668249130249023438e+01) (72, -1.34545958042144775391e+00) (73, -3.10571813583374023438e+00) (74, -5.61036407947540283203e-01) (75, -5.38533508777618408203e-01) (76, -1.30476796627044677734e+00) (77, -8.75611007213592529297e-01) (78, 1.22228670120239257812e+00) (79, 1.58135402202606201172e+00) (80, 3.83597433567047119141e-01) (81, -9.89346683025360107422e-01) (82, -4.04432624578475952148e-01) (83, -1.50000000000000000000e+03) (84, -1.23337585449218750000e+02) (85, 1.91044533252716064453e+00) (86, -7.97873497009277343750e-01) 
